{"learner":{"attributes":{"scikit_learn":"{\"_estimator_type\": \"regressor\"}"},"feature_names":["MedInc","HouseAge","AveRooms","AveBedrms","Population","AveOccup"],"feature_types":["float","float","float","float","float","float"],"gradient_booster":{"model":{"gbtree_model_param":{"num_parallel_tree":"1","num_trees":"100"},"iteration_indptr":[0,1,2,3,4,5,6,7,8,9,10,11,12,13,14,15,16,17,18,19,20,21,22,23,24,25,26,27,28,29,30,31,32,33,34,35,36,37,38,39,40,41,42,43,44,45,46,47,48,49,50,51,52,53,54,55,56,57,58,59,60,61,62,63,64,65,66,67,68,69,70,71,72,73,74,75,76,77,78,79,80,81,82,83,84,85,86,87,88,89,90,91,92,93,94,95,96,97,98,99,100],"tree_info":[0,0,0,0,0,0,0,0,0,0,0,0,0,0,0,0,0,0,0,0,0,0,0,0,0,0,0,0,0,0,0,0,0,0,0,0,0,0,0,0,0,0,0,0,0,0,0,0,0,0,0,0,0,0,0,0,0,0,0,0,0,0,0,0,0,0,0,0,0,0,0,0,0,0,0,0,0,0,0,0,0,0,0,0,0,0,0,0,0,0,0,0,0,0,0,0,0,0,0,0],"trees":[{"base_weights":[7.8074756E-8,-3.3445087E-1,1.2646004E0,-7.143344E-1,1.4299E-2,8.6241084E-1,2.157467E0,-4.4698152E-1,-9.071237E-1,7.357087E-1,-1.8305266E-1,1.4227115E0,5.491042E-1,1.6766824E0,2.502606E0,-6.8915105E-1,-1.5608436E-1,-1.1129521E0,-7.2251076E-1,2.303086E-1,1.0552752E0,-3.529857E-1,7.3647276E-2,8.9214456E-1,1.6573087E0,2.75116E-1,8.2059366E-1,1.3565645E0,2.1784987E0,2.2206035E0,2.6950827E0,-3.1251344E-1,-8.969643E-1,4.9295926E-1,-3.0513656E-1,-8.151333E-1,-1.172738E0,-2.973445E-1,-8.0944157E-1,-1.0248317E-1,4.0185872E-1,1.7221119E0,7.4620336E-1,-4.1677654E-1,1.0397209E-1,3.4496313E-1,-1.2008434E-1,6.097017E-1,1.2417976E0,2.4503856E0,1.4789242E0,5.516752E-1,1.2340326E-1,6.8643326E-1,1.2396697E0,1.1203632E0,1.5163363E0,1.1330477E0,2.2155354E0,1.8799558E0,2.683761E0,3.667126E-1,2.7264025E0,-8.72763E-3,-5.4641098E-2,-1.0100752E-1,-6.750904E-2,-3.6664088E-3,6.542288E-2,-1.2853195E-2,-5.6189384E-2,-1.01769365E-1,-6.370554E-2,-5.587851E-2,-1.1909657E-1,-4.98453E-2,-7.908004E-3,-6.340263E-2,-9.2347704E-2,1.3212821E-2,-3.8075645E-2,1.9380314E-2,8.647259E-2,1.0730429E-1,2.0341666E-1,5.546846E-2,1.2013024E-1,-2.3612102E-2,-5.510902E-2,4.822163E-2,-3.1101087E-3,2.3043552E-2,8.102646E-2,-3.0321091E-2,-3.5158414E-3,-3.8365215E-2,6.767797E-2,1.4377686E-1,8.4346674E-2,9.32711E-2,2.5156373E-1,1.1143632E-1,1.7579445E-1,2.7341897E-2,7.137471E-2,-1.0114112E-2,2.353015E-2,5.451099E-2,8.969887E-2,1.334877E-1,1.5061232E-2,7.5242543E-3,1.1570171E-1,2.0005134E-1,1.4225036E-1,1.3508445E-1,5.775398E-2,2.0742626E-1,2.4880758E-1,1.590924E-1,2.0562199E-1,2.7025267E-1,1.1323688E-1,1.2220388E-1,-3.6646016E-2,1.7198195E-1,2.768221E-1],"categories":[],"categories_nodes":[],"categories_segments":[],"categories_sizes":[],"default_left":[0,0,0,0,0,0,0,0,0,0,0,0,0,0,0,0,0,0,0,0,0,0,0,0,0,0,0,0,0,0,0,0,0,0,0,0,0,0,0,0,0,0,0,0,0,0,0,0,0,0,0,0,0,0,0,0,0,0,0,0,0,0,0,0,0,0,0,0,0,0,0,0,0,0,0,0,0,0,0,0,0,0,0,0,0,0,0,0,0,0,0,0,0,0,0,0,0,0,0,0,0,0,0,0,0,0,0,0,0,0,0,0,0,0,0,0,0,0,0,0,0,0,0,0,0,0,0],"id":0,"left_children":[1,3,5,7,9,11,13,15,17,19,21,23,25,27,29,31,33,35,37,39,41,43,45,47,49,51,53,55,57,59,61,63,65,67,69,71,73,75,77,79,81,83,85,87,89,91,93,95,97,99,101,103,105,107,109,111,113,115,117,119,121,123,125,-1,-1,-1,-1,-1,-1,-1,-1,-1,-1,-1,-1,-1,-1,-1,-1,-1,-1,-1,-1,-1,-1,-1,-1,-1,-1,-1,-1,-1,-1,-1,-1,-1,-1,-1,-1,-1,-1,-1,-1,-1,-1,-1,-1,-1,-1,-1,-1,-1,-1,-1,-1,-1,-1,-1,-1,-1,-1,-1,-1,-1,-1,-1,-1],"loss_changes":[6.984543E3,1.7302559E3,1.2384761E3,3.2178833E2,9.6968396E2,4.1754456E2,1.7368896E2,1.8453253E2,1.371687E2,2.360445E2,2.333154E2,1.0481848E2,1.1358316E2,6.949365E1,2.7776855E1,1.1164618E2,1.1546615E2,2.9580322E1,7.0611694E1,3.2468567E1,1.8338098E2,9.384711E1,1.12052025E2,2.5314728E1,7.998645E1,3.1945538E1,4.2328552E1,8.792419E0,4.2268677E0,3.566028E1,2.5617432E1,2.6820343E1,2.2431885E1,1.9070877E1,4.3911957E1,9.812393E0,1.5292969E1,1.4314194E1,3.1240112E1,1.2715807E1,3.5945713E1,5.5137573E1,5.2849915E1,6.839282E1,2.0195803E1,4.713468E1,1.933627E1,1.0121208E1,7.920471E0,8.249939E0,4.7375122E1,1.1981171E1,1.2436102E1,1.6888794E1,1.8980927E1,4.3566284E0,4.559601E0,1.8773651E-1,1.269043E0,4.472473E0,5.480957E-2,4.2104397E0,1.0392822E1,0E0,0E0,0E0,0E0,0E0,0E0,0E0,0E0,0E0,0E0,0E0,0E0,0E0,0E0,0E0,0E0,0E0,0E0,0E0,0E0,0E0,0E0,0E0,0E0,0E0,0E0,0E0,0E0,0E0,0E0,0E0,0E0,0E0,0E0,0E0,0E0,0E0,0E0,0E0,0E0,0E0,0E0,0E0,0E0,0E0,0E0,0E0,0E0,0E0,0E0,0E0,0E0,0E0,0E0,0E0,0E0,0E0,0E0,0E0,0E0,0E0,0E0,0E0,0E0],"parents":[2147483647,0,0,1,1,2,2,3,3,4,4,5,5,6,6,7,7,8,8,9,9,10,10,11,11,12,12,13,13,14,14,15,15,16,16,17,17,18,18,19,19,20,20,21,21,22,22,23,23,24,24,25,25,26,26,27,27,28,28,29,29,30,30,31,31,32,32,33,33,34,34,35,35,36,36,37,37,38,38,39,39,40,40,41,41,42,42,43,43,44,44,45,45,46,46,47,47,48,48,49,49,50,50,51,51,52,52,53,53,54,54,55,55,56,56,57,57,58,58,59,59,60,60,61,61,62,62],"right_children":[2,4,6,8,10,12,14,16,18,20,22,24,26,28,30,32,34,36,38,40,42,44,46,48,50,52,54,56,58,60,62,64,66,68,70,72,74,76,78,80,82,84,86,88,90,92,94,96,98,100,102,104,106,108,110,112,114,116,118,120,122,124,126,-1,-1,-1,-1,-1,-1,-1,-1,-1,-1,-1,-1,-1,-1,-1,-1,-1,-1,-1,-1,-1,-1,-1,-1,-1,-1,-1,-1,-1,-1,-1,-1,-1,-1,-1,-1,-1,-1,-1,-1,-1,-1,-1,-1,-1,-1,-1,-1,-1,-1,-1,-1,-1,-1,-1,-1,-1,-1,-1,-1,-1,-1,-1,-1],"split_conditions":[5.0736E0,3.0714E0,6.828E0,4.314229E0,2.3433242E0,2.669708E0,7.8287E0,2.2328E0,2.3687E0,2.5E1,4.125E0,2.2E1,5.7214E0,2.7E1,8.7471E0,3.4459016E0,2.0333333E0,2.251012E0,2.2950819E0,3.5268E0,1.9598699E0,4.4E1,2.8312712E0,5.7214E0,2.144781E0,2.9625669E0,2.8E1,1.01002E0,2.71E2,2.9E1,4.805646E0,3.1735792E0,1.962E0,2.2E1,3.4661016E0,1.9392E0,1.68E2,2.7E1,4.974293E0,4.5846868E0,1.9E1,3.4208E0,4.1364E0,5.1144576E0,2.5641026E0,4E1,1.8E1,3.16E2,2.516854E0,9.6218485E-1,5.5942E0,2.3E1,1.7E1,6.2924E0,3.3522012E0,2.0858505E0,2.4919918E0,6.618834E0,1.0493422E0,1.0094192E0,3.2425876E0,3.6E1,1.38E2,-8.72763E-3,-5.4641098E-2,-1.0100752E-1,-6.750904E-2,-3.6664088E-3,6.542288E-2,-1.2853195E-2,-5.6189384E-2,-1.01769365E-1,-6.370554E-2,-5.587851E-2,-1.1909657E-1,-4.98453E-2,-7.908004E-3,-6.340263E-2,-9.2347704E-2,1.3212821E-2,-3.8075645E-2,1.9380314E-2,8.647259E-2,1.0730429E-1,2.0341666E-1,5.546846E-2,1.2013024E-1,-2.3612102E-2,-5.510902E-2,4.822163E-2,-3.1101087E-3,2.3043552E-2,8.102646E-2,-3.0321091E-2,-3.5158414E-3,-3.8365215E-2,6.767797E-2,1.4377686E-1,8.4346674E-2,9.32711E-2,2.5156373E-1,1.1143632E-1,1.7579445E-1,2.7341897E-2,7.137471E-2,-1.0114112E-2,2.353015E-2,5.451099E-2,8.969887E-2,1.334877E-1,1.5061232E-2,7.5242543E-3,1.1570171E-1,2.0005134E-1,1.4225036E-1,1.3508445E-1,5.775398E-2,2.0742626E-1,2.4880758E-1,1.590924E-1,2.0562199E-1,2.7025267E-1,1.1323688E-1,1.2220388E-1,-3.6646016E-2,1.7198195E-1,2.768221E-1],"split_indices":[0,0,0,2,5,5,0,0,0,1,0,1,0,1,0,2,5,5,5,0,5,1,5,0,5,5,1,3,4,1,2,5,0,1,5,0,4,1,2,2,1,0,0,2,5,1,1,4,5,3,0,1,1,0,5,5,5,2,3,3,5,1,4,0,0,0,0,0,0,0,0,0,0,0,0,0,0,0,0,0,0,0,0,0,0,0,0,0,0,0,0,0,0,0,0,0,0,0,0,0,0,0,0,0,0,0,0,0,0,0,0,0,0,0,0,0,0,0,0,0,0,0,0,0,0,0,0],"split_type":[0,0,0,0,0,0,0,0,0,0,0,0,0,0,0,0,0,0,0,0,0,0,0,0,0,0,0,0,0,0,0,0,0,0,0,0,0,0,0,0,0,0,0,0,0,0,0,0,0,0,0,0,0,0,0,0,0,0,0,0,0,0,0,0,0,0,0,0,0,0,0,0,0,0,0,0,0,0,0,0,0,0,0,0,0,0,0,0,0,0,0,0,0,0,0,0,0,0,0,0,0,0,0,0,0,0,0,0,0,0,0,0,0,0,0,0,0,0,0,0,0,0,0,0,0,0,0],"sum_hessian":[1.6512E4,1.3059E4,3.453E3,6.25E3,6.809E3,2.382E3,1.071E3,2.62E3,3.63E3,1.462E3,5.347E3,8.53E2,1.529E3,4.5E2,6.21E2,1.429E3,1.191E3,1.714E3,1.916E3,5.67E2,8.95E2,3.217E3,2.13E3,2.63E2,5.9E2,7.62E2,7.67E2,2.77E2,1.73E2,2.57E2,3.64E2,5.09E2,9.2E2,2.22E2,9.69E2,2.89E2,1.425E3,3.26E2,1.59E3,1.93E2,3.74E2,2.82E2,6.13E2,2.823E3,3.94E2,8.87E2,1.243E3,1.47E2,1.16E2,1.06E2,4.84E2,2.69E2,4.93E2,5.83E2,1.84E2,1.15E2,1.62E2,7E0,1.66E2,1.51E2,1.06E2,5E0,3.59E2,2.6E2,2.49E2,6.07E2,3.13E2,5.2E1,1.7E2,5.75E2,3.94E2,1.33E2,1.56E2,4.2E1,1.383E3,1.69E2,1.57E2,6.29E2,9.61E2,1.05E2,8.8E1,2.59E2,1.15E2,9.3E1,1.89E2,4.33E2,1.8E2,1.205E3,1.618E3,1.03E2,2.91E2,7.13E2,1.74E2,3.93E2,8.5E2,9E0,1.38E2,7.6E1,4E1,5E0,1.01E2,2.12E2,2.72E2,1E2,1.69E2,1.64E2,3.29E2,3.51E2,2.32E2,1.69E2,1.5E1,4E0,1.11E2,2.3E1,1.39E2,4E0,3E0,1.15E2,5.1E1,6.1E1,9E1,1.04E2,2E0,2E0,3E0,1.6E1,3.43E2],"tree_param":{"num_deleted":"0","num_feature":"6","num_nodes":"127","size_leaf_vector":"1"}},{"base_weights":[2.1215028E-4,-3.081371E-1,1.1138341E0,-6.151838E-1,3.516009E-2,7.5885206E-1,1.9439565E0,-1.14604644E-1,-7.039026E-1,7.0415777E-1,-1.5611024E-1,1.3608375E0,5.252882E-1,1.5114855E0,2.2544074E0,-4.4629958E-1,1.4091757E-1,-5.026258E-1,-8.3464104E-1,1.1333933E-1,9.369719E-1,-3.146938E-1,2.9252646E-2,8.4185654E-1,1.5886956E0,3.1191474E-1,8.271271E-1,1.2225827E0,1.9643791E0,1.950189E0,2.4047365E0,-1.5183806E-1,-6.435057E-1,4.371168E-1,-2.3535429E-1,-7.0438814E-1,-2.7706808E-1,-1.0040199E0,-6.299915E-1,-7.134943E-2,2.6125115E-1,1.5462174E0,6.75132E-1,-3.758819E-1,1.1633569E-1,2.3301426E-1,-1.636773E-1,5.267781E-1,1.1638552E0,2.3437498E0,1.4204996E0,5.116873E-1,1.1342862E-1,6.5628046E-1,1.2654088E0,1.0093892E0,1.3668028E0,1.0438478E0,1.9967136E0,1.5774657E0,2.2418377E0,3.2815298E-1,2.4294412E0,-2.5198191E-2,6.6691905E-2,-8.094371E-2,-4.81328E-2,-9.811197E-3,5.892215E-2,-8.615937E-2,-1.48795815E-2,-3.5626404E-2,-8.9337215E-2,-1.1602809E-2,-5.096213E-2,-1.0974083E-1,-9.099768E-2,-6.8790786E-2,-1.2762665E-2,1.9539436E-2,-2.1599246E-2,1.36738615E-2,6.1011255E-2,1.0103524E-1,1.7761764E-1,4.9100764E-2,1.0502306E-1,-2.1910874E-2,-4.9591437E-2,3.3417586E-2,-9.419953E-3,1.3103016E-2,7.7736355E-2,-3.397525E-2,-7.4598403E-3,-4.1171104E-2,6.036676E-2,1.2207887E-1,-2.3035923E-2,1.0958367E-1,2.3752725E-1,1.1095547E-1,1.6698657E-1,2.5173932E-2,6.3196294E-2,-1.4607516E-2,2.0600883E-2,8.097472E-2,4.809815E-2,1.32724E-1,1.3974266E-2,7.9606466E-2,1.2019898E-1,1.0375601E-1,1.4689453E-1,5.1330913E-2,1.2595092E-1,1.7259991E-1,2.1108074E-1,1.3033117E-1,1.7421795E-1,8.912765E-2,2.2821143E-1,1.1082734E-1,-3.3897556E-2,1.4489165E-1,2.4555612E-1],"categories":[],"categories_nodes":[],"categories_segments":[],"categories_sizes":[],"default_left":[0,0,0,0,0,0,0,0,0,0,0,0,0,0,0,0,0,0,0,0,0,0,0,0,0,0,0,0,0,0,0,0,0,0,0,0,0,0,0,0,0,0,0,0,0,0,0,0,0,0,0,0,0,0,0,0,0,0,0,0,0,0,0,0,0,0,0,0,0,0,0,0,0,0,0,0,0,0,0,0,0,0,0,0,0,0,0,0,0,0,0,0,0,0,0,0,0,0,0,0,0,0,0,0,0,0,0,0,0,0,0,0,0,0,0,0,0,0,0,0,0,0,0,0,0,0,0],"id":1,"left_children":[1,3,5,7,9,11,13,15,17,19,21,23,25,27,29,31,33,35,37,39,41,43,45,47,49,51,53,55,57,59,61,63,65,67,69,71,73,75,77,79,81,83,85,87,89,91,93,95,97,99,101,103,105,107,109,111,113,115,117,119,121,123,125,-1,-1,-1,-1,-1,-1,-1,-1,-1,-1,-1,-1,-1,-1,-1,-1,-1,-1,-1,-1,-1,-1,-1,-1,-1,-1,-1,-1,-1,-1,-1,-1,-1,-1,-1,-1,-1,-1,-1,-1,-1,-1,-1,-1,-1,-1,-1,-1,-1,-1,-1,-1,-1,-1,-1,-1,-1,-1,-1,-1,-1,-1,-1,-1],"loss_changes":[5.6706504E3,1.3632665E3,1.053769E3,3.0311206E2,7.8155804E2,3.521963E2,1.4052051E2,8.7276215E1,1.5217871E2,1.8668787E2,1.3963788E2,8.1558716E1,1.16313995E2,5.6608154E1,2.3756104E1,2.5917473E1,6.4967606E1,1.038385E2,1.2117456E2,1.0535934E1,1.5433331E2,6.756088E1,8.6170105E1,2.1301147E1,5.8391357E1,4.2052452E1,5.5253845E1,7.1679993E0,3.0948486E0,1.9400146E1,2.0338623E1,1.5008875E1,6.8223724E0,2.6597733E1,1.3802823E1,7.902429E1,4.0424713E1,1.5872559E1,4.6289917E1,6.678417E0,9.212224E0,3.4187683E1,4.665558E1,4.2080994E1,1.4661784E1,5.9077095E1,1.7635498E1,8.258297E0,8.695221E0,8.19458E-1,2.916278E1,1.638034E1,1.2859398E1,1.416481E1,1.4361237E1,3.8091583E0,3.9575195E0,2.68816E-1,1.5148315E0,2.0644836E0,4.27594E0,3.498321E0,6.865967E0,0E0,0E0,0E0,0E0,0E0,0E0,0E0,0E0,0E0,0E0,0E0,0E0,0E0,0E0,0E0,0E0,0E0,0E0,0E0,0E0,0E0,0E0,0E0,0E0,0E0,0E0,0E0,0E0,0E0,0E0,0E0,0E0,0E0,0E0,0E0,0E0,0E0,0E0,0E0,0E0,0E0,0E0,0E0,0E0,0E0,0E0,0E0,0E0,0E0,0E0,0E0,0E0,0E0,0E0,0E0,0E0,0E0,0E0,0E0,0E0,0E0,0E0,0E0,0E0],"parents":[2147483647,0,0,1,1,2,2,3,3,4,4,5,5,6,6,7,7,8,8,9,9,10,10,11,11,12,12,13,13,14,14,15,15,16,16,17,17,18,18,19,19,20,20,21,21,22,22,23,23,24,24,25,25,26,26,27,27,28,28,29,29,30,30,31,31,32,32,33,33,34,34,35,35,36,36,37,37,38,38,39,39,40,40,41,41,42,42,43,43,44,44,45,45,46,46,47,47,48,48,49,49,50,50,51,51,52,52,53,53,54,54,55,55,56,56,57,57,58,58,59,59,60,60,61,61,62,62],"right_children":[2,4,6,8,10,12,14,16,18,20,22,24,26,28,30,32,34,36,38,40,42,44,46,48,50,52,54,56,58,60,62,64,66,68,70,72,74,76,78,80,82,84,86,88,90,92,94,96,98,100,102,104,106,108,110,112,114,116,118,120,122,124,126,-1,-1,-1,-1,-1,-1,-1,-1,-1,-1,-1,-1,-1,-1,-1,-1,-1,-1,-1,-1,-1,-1,-1,-1,-1,-1,-1,-1,-1,-1,-1,-1,-1,-1,-1,-1,-1,-1,-1,-1,-1,-1,-1,-1,-1,-1,-1,-1,-1,-1,-1,-1,-1,-1,-1,-1,-1,-1,-1,-1,-1,-1,-1,-1],"split_conditions":[5.0253E0,3.1875E0,6.828E0,2.1589403E0,2.3666666E0,2.5770235E0,7.8287E0,2.3026E0,4.3419914E0,2E1,4.0556E0,2.2E1,5.826E0,2.7E1,2.1E1,3.8291457E0,4.3980813E0,2.2206E0,2.5804E0,3.8E0,1.9598699E0,4.4E1,2.9310346E0,5.6345E0,2.0605633E0,3.0298102E0,2.8E1,1.01002E0,2.71E2,8.7471E0,4.805646E0,1.753E3,1.9392E0,2.2E1,1.5668104E0,3.517691E0,3.4661016E0,2.1111E0,4.5E1,4.107438E0,1.7E1,2.9E1,4.1364E0,5.1459074E0,2.7935703E0,4.3E1,1.9E1,3.16E2,1.5272727E0,9.3010753E-1,5.5599E0,2.1E1,1.6E1,3.1413794E0,3.3522012E0,1.133E3,1.1E1,1.0018797E0,1.0120482E0,1.0094192E0,8.5714287E-1,9.281E0,1.38E2,-2.5198191E-2,6.6691905E-2,-8.094371E-2,-4.81328E-2,-9.811197E-3,5.892215E-2,-8.615937E-2,-1.48795815E-2,-3.5626404E-2,-8.9337215E-2,-1.1602809E-2,-5.096213E-2,-1.0974083E-1,-9.099768E-2,-6.8790786E-2,-1.2762665E-2,1.9539436E-2,-2.1599246E-2,1.36738615E-2,6.1011255E-2,1.0103524E-1,1.7761764E-1,4.9100764E-2,1.0502306E-1,-2.1910874E-2,-4.9591437E-2,3.3417586E-2,-9.419953E-3,1.3103016E-2,7.7736355E-2,-3.397525E-2,-7.4598403E-3,-4.1171104E-2,6.036676E-2,1.2207887E-1,-2.3035923E-2,1.0958367E-1,2.3752725E-1,1.1095547E-1,1.6698657E-1,2.5173932E-2,6.3196294E-2,-1.4607516E-2,2.0600883E-2,8.097472E-2,4.809815E-2,1.32724E-1,1.3974266E-2,7.9606466E-2,1.2019898E-1,1.0375601E-1,1.4689453E-1,5.1330913E-2,1.2595092E-1,1.7259991E-1,2.1108074E-1,1.3033117E-1,1.7421795E-1,8.912765E-2,2.2821143E-1,1.1082734E-1,-3.3897556E-2,1.4489165E-1,2.4555612E-1],"split_indices":[0,0,0,5,5,5,0,0,2,1,0,1,0,1,1,2,2,0,0,0,5,1,5,0,5,5,1,3,4,0,2,4,0,1,5,2,5,0,1,2,1,1,0,2,5,1,1,4,3,3,0,1,1,5,5,4,1,3,3,3,3,0,4,0,0,0,0,0,0,0,0,0,0,0,0,0,0,0,0,0,0,0,0,0,0,0,0,0,0,0,0,0,0,0,0,0,0,0,0,0,0,0,0,0,0,0,0,0,0,0,0,0,0,0,0,0,0,0,0,0,0,0,0,0,0,0,0],"split_type":[0,0,0,0,0,0,0,0,0,0,0,0,0,0,0,0,0,0,0,0,0,0,0,0,0,0,0,0,0,0,0,0,0,0,0,0,0,0,0,0,0,0,0,0,0,0,0,0,0,0,0,0,0,0,0,0,0,0,0,0,0,0,0,0,0,0,0,0,0,0,0,0,0,0,0,0,0,0,0,0,0,0,0,0,0,0,0,0,0,0,0,0,0,0,0,0,0,0,0,0,0,0,0,0,0,0,0,0,0,0,0,0,0,0,0,0,0,0,0,0,0,0,0,0,0,0,0],"sum_hessian":[1.6512E4,1.2932E4,3.58E3,6.826E3,6.106E3,2.509E3,1.071E3,1.028E3,5.798E3,1.357E3,4.749E3,7E2,1.809E3,4.5E2,6.21E2,4.47E2,5.81E2,2.285E3,3.513E3,3.84E2,9.73E2,2.559E3,2.19E3,2.15E2,4.85E2,1.061E3,7.48E2,2.77E2,1.73E2,2.1E2,4.11E2,1.8E2,2.67E2,3.25E2,2.56E2,1.205E3,1.08E3,1.92E3,1.593E3,1.71E2,2.13E2,2.91E2,6.82E2,2.241E3,3.18E2,1.065E3,1.125E3,1.1E2,1.05E2,8.6E1,3.99E2,5.28E2,5.33E2,5.4E2,2.08E2,1.15E2,1.62E2,7E0,1.66E2,9.5E1,1.15E2,5E0,4.06E2,1.61E2,1.9E1,1.3E2,1.37E2,7.2E1,2.53E2,3E1,2.26E2,4.25E2,7.8E2,6.39E2,4.41E2,9.58E2,9.62E2,1.428E3,1.65E2,6E1,1.11E2,1.58E2,5.5E1,8.9E1,2.02E2,4.59E2,2.23E2,9.73E2,1.268E3,1.56E2,1.62E2,8.98E2,1.67E2,3.77E2,7.48E2,8E0,1.02E2,1.01E2,4E0,3E0,8.3E1,1.8E2,2.19E2,1.68E2,3.6E2,1.4E2,3.93E2,2.86E2,2.54E2,1.97E2,1.1E1,5.7E1,5.8E1,4.1E1,1.21E2,3E0,4E0,5.4E1,1.12E2,3.9E1,5.6E1,4E0,1.11E2,2E0,3E0,1.2E1,3.94E2],"tree_param":{"num_deleted":"0","num_feature":"6","num_nodes":"127","size_leaf_vector":"1"}},{"base_weights":[3.794073E-4,-2.647355E-1,1.0523845E0,-5.537546E-1,4.5352258E-2,7.33723E-1,1.7838194E0,-1.0327976E-1,-6.335934E-1,7.169661E-1,-1.10854864E-1,1.1356039E0,4.4193304E-1,1.5102658E0,2.1495006E0,-3.2938427E-1,2.0746118E-1,-4.2604467E-1,-7.362945E-1,1.2769403E-1,9.6015054E-1,-2.578238E-1,7.428705E-2,6.9813555E-1,1.3246393E0,1.9725643E-1,6.537121E-1,1.2381653E0,1.9101832E0,9.041731E-1,2.1831691E0,-1.4276162E-1,-5.5725545E-1,4.665225E-1,-1.5380244E-1,-5.8361965E-1,-2.4495588E-1,-8.9500046E-1,-5.449966E-1,2.4339817E-2,3.843036E-1,1.4146945E0,7.096453E-1,-3.0166018E-1,2.813195E-1,3.3289415E-1,-7.6171346E-2,4.2478555E-1,8.82097E-1,1.892474E0,1.1586629E0,3.5323498E-1,5.76464E-2,6.101017E-1,1.6364142E0,1.0199382E0,1.3926898E0,1.6022681E0,2.0379324E0,-7.5125515E-2,1.2054752E0,-3.1320155E-2,2.1899228E0,-3.7737783E-2,3.7414227E-3,-8.162419E-2,-4.149584E-2,-8.0046704E-4,5.9532892E-2,4.242766E-3,-3.7823476E-2,-2.9227888E-2,-7.5571254E-2,-8.868647E-3,-4.5025937E-2,-9.841846E-2,-8.00552E-2,-2.7929723E-2,-6.4207256E-2,1.8240664E-2,-1.5670562E-2,-2.9542727E-2,5.5578567E-2,1.1413335E-1,1.7904563E-1,5.23116E-2,1.0631583E-1,-1.6293837E-2,-4.0910717E-2,2.2094299E-3,5.4274034E-2,-1.1695531E-3,4.6340548E-2,4.0818797E-3,-1.9484773E-2,2.6271868E-2,8.001457E-2,1.1141067E-1,5.8975916E-2,1.0283541E-1,1.9795795E-1,8.647134E-2,1.4006184E-1,3.6939424E-3,4.442331E-2,1.4754441E-1,4.0180436E-3,7.595041E-2,4.3852713E-2,1.8349092E-1,-1.1253077E-2,4.9381748E-2,1.0936009E-1,1.1574091E-1,1.5095773E-1,4.614755E-2,1.661713E-1,1.1044538E-1,2.0546806E-1,2.5843954E-2,-5.3791035E-2,-4.3820154E-2,1.436795E-1,1.9352826E-1,2.2989018E-1],"categories":[],"categories_nodes":[],"categories_segments":[],"categories_sizes":[],"default_left":[0,0,0,0,0,0,0,0,0,0,0,0,0,0,0,0,0,0,0,0,0,0,0,0,0,0,0,0,0,0,0,0,0,0,0,0,0,0,0,0,0,0,0,0,0,0,0,0,0,0,0,0,0,0,0,0,0,0,0,0,0,0,0,0,0,0,0,0,0,0,0,0,0,0,0,0,0,0,0,0,0,0,0,0,0,0,0,0,0,0,0,0,0,0,0,0,0,0,0,0,0,0,0,0,0,0,0,0,0,0,0,0,0,0,0,0,0,0,0,0,0,0,0,0,0],"id":2,"left_children":[1,3,5,7,9,11,13,15,17,19,21,23,25,27,29,31,33,35,37,39,41,43,45,47,49,51,53,55,57,59,61,63,65,67,69,71,73,75,77,79,81,83,85,87,89,91,93,95,97,99,101,103,105,107,109,111,113,115,117,119,121,-1,123,-1,-1,-1,-1,-1,-1,-1,-1,-1,-1,-1,-1,-1,-1,-1,-1,-1,-1,-1,-1,-1,-1,-1,-1,-1,-1,-1,-1,-1,-1,-1,-1,-1,-1,-1,-1,-1,-1,-1,-1,-1,-1,-1,-1,-1,-1,-1,-1,-1,-1,-1,-1,-1,-1,-1,-1,-1,-1,-1,-1,-1,-1],"loss_changes":[4.605791E3,1.1821299E3,7.734492E2,2.4547021E2,6.677322E2,2.712008E2,9.75874E1,7.23658E1,1.2329492E2,1.7198285E2,1.4053217E2,7.962219E1,6.951361E1,6.0749146E1,1.6013306E1,2.5265892E1,4.0689568E1,5.4701385E1,1.1724878E2,9.326279E0,9.578186E1,6.8127396E1,8.897273E1,1.4509918E1,6.1801025E1,1.3589741E1,2.985794E1,1.0314575E1,5.8999634E0,3.926403E0,7.7163086E0,1.3921665E1,9.537903E0,1.5468666E1,8.031397E0,5.127054E1,2.8706131E1,1.7052612E1,4.5242126E1,7.240138E0,1.1936919E1,2.8874817E1,3.571115E1,3.9626007E1,1.469342E1,3.7827583E1,2.0084167E1,7.150635E0,1.1280182E1,9.405212E0,3.6341675E1,8.474369E0,8.137337E0,1.7379791E1,1.0621178E1,5.1957703E0,3.7805786E0,4.183609E0,2.4780273E-1,7.564927E-1,4.431754E0,0E0,7.095093E0,0E0,0E0,0E0,0E0,0E0,0E0,0E0,0E0,0E0,0E0,0E0,0E0,0E0,0E0,0E0,0E0,0E0,0E0,0E0,0E0,0E0,0E0,0E0,0E0,0E0,0E0,0E0,0E0,0E0,0E0,0E0,0E0,0E0,0E0,0E0,0E0,0E0,0E0,0E0,0E0,0E0,0E0,0E0,0E0,0E0,0E0,0E0,0E0,0E0,0E0,0E0,0E0,0E0,0E0,0E0,0E0,0E0,0E0,0E0,0E0,0E0,0E0],"parents":[2147483647,0,0,1,1,2,2,3,3,4,4,5,5,6,6,7,7,8,8,9,9,10,10,11,11,12,12,13,13,14,14,15,15,16,16,17,17,18,18,19,19,20,20,21,21,22,22,23,23,24,24,25,25,26,26,27,27,28,28,29,29,30,30,31,31,32,32,33,33,34,34,35,35,36,36,37,37,38,38,39,39,40,40,41,41,42,42,43,43,44,44,45,45,46,46,47,47,48,48,49,49,50,50,51,51,52,52,53,53,54,54,55,55,56,56,57,57,58,58,59,59,60,60,62,62],"right_children":[2,4,6,8,10,12,14,16,18,20,22,24,26,28,30,32,34,36,38,40,42,44,46,48,50,52,54,56,58,60,62,64,66,68,70,72,74,76,78,80,82,84,86,88,90,92,94,96,98,100,102,104,106,108,110,112,114,116,118,120,122,-1,124,-1,-1,-1,-1,-1,-1,-1,-1,-1,-1,-1,-1,-1,-1,-1,-1,-1,-1,-1,-1,-1,-1,-1,-1,-1,-1,-1,-1,-1,-1,-1,-1,-1,-1,-1,-1,-1,-1,-1,-1,-1,-1,-1,-1,-1,-1,-1,-1,-1,-1,-1,-1,-1,-1,-1,-1,-1,-1,-1,-1,-1,-1],"split_conditions":[5.1228E0,3.1875E0,6.9343E0,2.1589403E0,2.3019416E0,2.7457628E0,8.4411E0,2.5667E0,4.1923075E0,2E1,4.125E0,2.2E1,5.7214E0,2.7E1,6.9E1,4.314229E0,4.3980813E0,2.2206E0,2.5667E0,4.3036E0,1.9598699E0,4.8E1,2.7748537E0,5.5942E0,2.2600896E0,3.125E0,4.1E1,1.0106952E0,1.0079051E0,2.1189592E0,3.1909723E0,2.7E1,1.9392E0,2.2E1,4.949367E0,3.4459016E0,3.4661016E0,2.0956E0,4.7034483E0,4.646988E0,5.34E2,3.9187E0,4.1364E0,5.1459074E0,3.6333E0,2.1E1,3.1328905E0,1.7E1,2.516854E0,3.69E2,5.7214E0,9.7402596E-1,1.68E2,3.1413794E0,3.3087718E0,6.05E2,1.4E1,1.68E2,2.49E2,4.675079E0,4.805646E0,-3.1320155E-2,9.281E0,-3.7737783E-2,3.7414227E-3,-8.162419E-2,-4.149584E-2,-8.0046704E-4,5.9532892E-2,4.242766E-3,-3.7823476E-2,-2.9227888E-2,-7.5571254E-2,-8.868647E-3,-4.5025937E-2,-9.841846E-2,-8.00552E-2,-2.7929723E-2,-6.4207256E-2,1.8240664E-2,-1.5670562E-2,-2.9542727E-2,5.5578567E-2,1.1413335E-1,1.7904563E-1,5.23116E-2,1.0631583E-1,-1.6293837E-2,-4.0910717E-2,2.2094299E-3,5.4274034E-2,-1.1695531E-3,4.6340548E-2,4.0818797E-3,-1.9484773E-2,2.6271868E-2,8.001457E-2,1.1141067E-1,5.8975916E-2,1.0283541E-1,1.9795795E-1,8.647134E-2,1.4006184E-1,3.6939424E-3,4.442331E-2,1.4754441E-1,4.0180436E-3,7.595041E-2,4.3852713E-2,1.8349092E-1,-1.1253077E-2,4.9381748E-2,1.0936009E-1,1.1574091E-1,1.5095773E-1,4.614755E-2,1.661713E-1,1.1044538E-1,2.0546806E-1,2.5843954E-2,-5.3791035E-2,-4.3820154E-2,1.436795E-1,1.9352826E-1,2.2989018E-1],"split_indices":[0,0,0,5,5,5,0,0,2,1,0,1,0,1,4,2,2,0,0,0,5,1,5,0,5,5,1,3,3,5,2,1,0,1,2,2,5,0,2,2,4,0,0,2,0,1,5,1,5,4,0,3,4,5,5,4,1,4,4,2,2,0,0,0,0,0,0,0,0,0,0,0,0,0,0,0,0,0,0,0,0,0,0,0,0,0,0,0,0,0,0,0,0,0,0,0,0,0,0,0,0,0,0,0,0,0,0,0,0,0,0,0,0,0,0,0,0,0,0,0,0,0,0,0,0],"split_type":[0,0,0,0,0,0,0,0,0,0,0,0,0,0,0,0,0,0,0,0,0,0,0,0,0,0,0,0,0,0,0,0,0,0,0,0,0,0,0,0,0,0,0,0,0,0,0,0,0,0,0,0,0,0,0,0,0,0,0,0,0,0,0,0,0,0,0,0,0,0,0,0,0,0,0,0,0,0,0,0,0,0,0,0,0,0,0,0,0,0,0,0,0,0,0,0,0,0,0,0,0,0,0,0,0,0,0,0,0,0,0,0,0,0,0,0,0,0,0,0,0,0,0,0,0],"sum_hessian":[1.6512E4,1.3189E4,3.323E3,6.826E3,6.363E3,2.316E3,1.007E3,1.028E3,5.798E3,1.2E3,5.163E3,9.73E2,1.343E3,5.79E2,4.28E2,5.95E2,4.33E2,1.921E3,3.877E3,3.51E2,8.49E2,2.878E3,2.285E3,2.95E2,6.78E2,6.24E2,7.19E2,3.47E2,2.32E2,1.2E1,4.16E2,3.28E2,2.67E2,2.52E2,1.81E2,1.026E3,8.95E2,2.117E3,1.76E3,2.51E2,1E2,3E2,5.49E2,2.662E3,2.16E2,8.4E2,1.445E3,1.2E2,1.75E2,1.51E2,5.27E2,2.94E2,3.3E2,6.9E2,2.9E1,1.47E2,2E2,7.2E1,1.6E2,3E0,9E0,1E0,4.15E2,1.42E2,1.86E2,9.3E1,1.74E2,5.4E1,1.98E2,9.7E1,8.4E1,3.82E2,6.44E2,5.09E2,3.86E2,1.084E3,1.033E3,4.72E2,1.288E3,1.34E2,1.17E2,2E1,8E1,1.76E2,1.24E2,3.61E2,1.88E2,1.163E3,1.499E3,1.09E2,1.07E2,2.31E2,6.09E2,7.28E2,7.17E2,8.5E1,3.5E1,9.6E1,7.9E1,1.5E1,1.36E2,2.4E2,2.87E2,6.6E1,2.28E2,3E0,3.27E2,3.67E2,3.23E2,2.6E1,3E0,1.9E1,1.28E2,7E1,1.3E2,4E0,6.8E1,4E0,1.56E2,2E0,1E0,1E0,8E0,1.3E2,2.85E2],"tree_param":{"num_deleted":"0","num_feature":"6","num_nodes":"125","size_leaf_vector":"1"}},{"base_weights":[5.026434E-4,-2.4985413E-1,9.0468127E-1,-5.2287173E-1,5.552558E-3,5.750942E-1,1.5076444E0,-3.2553214E-1,-6.6517526E-1,4.8666966E-1,-1.6128366E-1,9.314125E-1,3.1275913E-1,1.1892471E0,1.8348796E0,-2.6492557E-2,-4.62397E-1,-8.103706E-1,-5.2278095E-1,1.310069E-1,7.077879E-1,-3.1895766E-1,-2.7716937E-2,4.327681E-1,1.0583897E0,1.4849916E-1,5.097888E-1,9.494773E-1,1.5862503E0,1.6649576E0,2.0391538E0,-2.6885295E-1,2.2490957E-1,-6.392971E-1,-3.4144133E-1,-4.0250373E-1,-8.344367E-1,-2.0315716E-1,-5.963382E-1,-1.265022E-1,2.632919E-1,1.1682714E0,4.5017564E-1,-1.15149796E-1,-4.0427172E-1,-8.11657E-2,4.1113374E-1,2.2898588E-1,6.6695625E-1,1.78992E0,9.4850266E-1,-3.5923023E-2,2.5305578E-1,4.7615E-1,1.4732802E0,1.2826755E0,8.6453784E-1,1.9916794E0,1.4981146E0,1.4138894E0,1.9635967E0,2.5931817E-1,2.0641904E0,4.334744E-3,-4.5349922E-2,1.053984E-2,8.484235E-2,-1.8511511E-2,-7.488521E-2,-2.0944735E-2,-4.7653846E-2,1.2906936E-1,-4.320472E-2,-8.368137E-2,1.5960506E-1,-4.559096E-3,-3.5774466E-2,-4.4632595E-2,-6.920597E-2,5.743648E-3,-3.488737E-2,6.0922834E-3,4.9626447E-2,8.5812785E-2,1.4550486E-1,2.5468161E-2,7.350869E-2,6.9124065E-3,-3.5293523E-2,-4.574173E-2,6.199429E-3,3.6480885E-3,-2.1113575E-2,5.666401E-2,1.6335504E-2,-7.524927E-2,2.6386255E-2,3.989669E-2,9.828727E-2,5.817559E-2,1.8467852E-1,7.993864E-2,1.18449286E-1,-2.3941224E-2,1.1230241E-2,3.2963946E-2,2.697025E-3,6.0490727E-2,3.3524584E-2,1.7025034E-1,-3.9315272E-2,1.2411487E-2,1.4096807E-1,7.124999E-2,9.4663374E-2,2.2274518E-2,2.0313254E-1,4.390353E-2,1.5172927E-1,1.6854513E-1,1.2887569E-1,2.8901149E-2,2.0060425E-1,1.2507519E-1,-3.0122822E-2,1.2784387E-1,2.086052E-1],"categories":[],"categories_nodes":[],"categories_segments":[],"categories_sizes":[],"default_left":[0,0,0,0,0,0,0,0,0,0,0,0,0,0,0,0,0,0,0,0,0,0,0,0,0,0,0,0,0,0,0,0,0,0,0,0,0,0,0,0,0,0,0,0,0,0,0,0,0,0,0,0,0,0,0,0,0,0,0,0,0,0,0,0,0,0,0,0,0,0,0,0,0,0,0,0,0,0,0,0,0,0,0,0,0,0,0,0,0,0,0,0,0,0,0,0,0,0,0,0,0,0,0,0,0,0,0,0,0,0,0,0,0,0,0,0,0,0,0,0,0,0,0,0,0,0,0],"id":3,"left_children":[1,3,5,7,9,11,13,15,17,19,21,23,25,27,29,31,33,35,37,39,41,43,45,47,49,51,53,55,57,59,61,63,65,67,69,71,73,75,77,79,81,83,85,87,89,91,93,95,97,99,101,103,105,107,109,111,113,115,117,119,121,123,125,-1,-1,-1,-1,-1,-1,-1,-1,-1,-1,-1,-1,-1,-1,-1,-1,-1,-1,-1,-1,-1,-1,-1,-1,-1,-1,-1,-1,-1,-1,-1,-1,-1,-1,-1,-1,-1,-1,-1,-1,-1,-1,-1,-1,-1,-1,-1,-1,-1,-1,-1,-1,-1,-1,-1,-1,-1,-1,-1,-1,-1,-1,-1,-1],"loss_changes":[3.7382283E3,9.0182776E2,7.1078125E2,1.753247E2,5.365079E2,2.1628986E2,1.2961938E2,1.072601E2,7.464734E1,1.352528E2,1.0451195E2,6.171869E1,4.3162704E1,5.97959E1,1.8194824E1,5.0266727E1,3.8253662E1,1.7293213E1,4.3044403E1,2.255E1,1.25336426E2,3.952777E1,6.3083164E1,9.439674E0,6.116388E1,1.4085358E1,1.8971802E1,1.0324982E1,5.6278076E0,2.309137E1,1.1852661E1,2.4231243E1,3.0089912E1,3.6134888E1,1.8980438E1,5.659979E0,1.1127808E1,8.387119E0,2.1115356E1,9.22315E0,2.0572762E1,3.2549377E1,3.7799133E1,2.9513668E1,3.977545E1,3.6659103E1,1.1158543E1,3.9297028E0,7.481453E0,5.8645935E0,2.3052612E1,8.01989E0,8.05965E0,1.0464966E1,9.225937E0,1.1596481E1,3.3820648E0,2.352768E0,3.436737E0,4.3182983E0,1.0437561E1,3.1554844E0,2.039917E0,0E0,0E0,0E0,0E0,0E0,0E0,0E0,0E0,0E0,0E0,0E0,0E0,0E0,0E0,0E0,0E0,0E0,0E0,0E0,0E0,0E0,0E0,0E0,0E0,0E0,0E0,0E0,0E0,0E0,0E0,0E0,0E0,0E0,0E0,0E0,0E0,0E0,0E0,0E0,0E0,0E0,0E0,0E0,0E0,0E0,0E0,0E0,0E0,0E0,0E0,0E0,0E0,0E0,0E0,0E0,0E0,0E0,0E0,0E0,0E0,0E0,0E0,0E0,0E0],"parents":[2147483647,0,0,1,1,2,2,3,3,4,4,5,5,6,6,7,7,8,8,9,9,10,10,11,11,12,12,13,13,14,14,15,15,16,16,17,17,18,18,19,19,20,20,21,21,22,22,23,23,24,24,25,25,26,26,27,27,28,28,29,29,30,30,31,31,32,32,33,33,34,34,35,35,36,36,37,37,38,38,39,39,40,40,41,41,42,42,43,43,44,44,45,45,46,46,47,47,48,48,49,49,50,50,51,51,52,52,53,53,54,54,55,55,56,56,57,57,58,58,59,59,60,60,61,61,62,62],"right_children":[2,4,6,8,10,12,14,16,18,20,22,24,26,28,30,32,34,36,38,40,42,44,46,48,50,52,54,56,58,60,62,64,66,68,70,72,74,76,78,80,82,84,86,88,90,92,94,96,98,100,102,104,106,108,110,112,114,116,118,120,122,124,126,-1,-1,-1,-1,-1,-1,-1,-1,-1,-1,-1,-1,-1,-1,-1,-1,-1,-1,-1,-1,-1,-1,-1,-1,-1,-1,-1,-1,-1,-1,-1,-1,-1,-1,-1,-1,-1,-1,-1,-1,-1,-1,-1,-1,-1,-1,-1,-1,-1,-1,-1,-1,-1,-1,-1,-1,-1,-1,-1,-1,-1,-1,-1,-1],"split_conditions":[5.0253E0,3.0714E0,6.5891E0,4.314229E0,2.4149444E0,2.7457628E0,7.8287E0,2.511236E0,2.4E0,2.5E1,3.8393E0,1.7E1,5.6762E0,2.7E1,3E1,2.3026E0,1.9797E0,1.9274874E0,2.3372092E0,3.5268E0,2.048583E0,4.728395E0,4.3E1,5.6345E0,2.0605633E0,1.8E1,4.1E1,2.6575E0,2.2600896E0,9.281E0,4.805646E0,3.3595707E0,4.8E1,3.045238E0,3.5991902E0,3E0,2.5636364E1,4.949367E0,4.974293E0,4.646988E0,1.7E1,3.6875E0,4.0282E0,3.2506082E0,4.5E1,3.0163934E0,2.8786764E0,3E0,1.078125E0,9.4285715E-1,5.826E0,1.0193704E0,3.3717647E0,3.1413794E0,1.2151898E0,9.5679015E-1,1.14E3,4.2572346E0,2.71E2,2.7748537E0,6.9E1,9.281E0,1.38E2,4.334744E-3,-4.5349922E-2,1.053984E-2,8.484235E-2,-1.8511511E-2,-7.488521E-2,-2.0944735E-2,-4.7653846E-2,1.2906936E-1,-4.320472E-2,-8.368137E-2,1.5960506E-1,-4.559096E-3,-3.5774466E-2,-4.4632595E-2,-6.920597E-2,5.743648E-3,-3.488737E-2,6.0922834E-3,4.9626447E-2,8.5812785E-2,1.4550486E-1,2.5468161E-2,7.350869E-2,6.9124065E-3,-3.5293523E-2,-4.574173E-2,6.199429E-3,3.6480885E-3,-2.1113575E-2,5.666401E-2,1.6335504E-2,-7.524927E-2,2.6386255E-2,3.989669E-2,9.828727E-2,5.817559E-2,1.8467852E-1,7.993864E-2,1.18449286E-1,-2.3941224E-2,1.1230241E-2,3.2963946E-2,2.697025E-3,6.0490727E-2,3.3524584E-2,1.7025034E-1,-3.9315272E-2,1.2411487E-2,1.4096807E-1,7.124999E-2,9.4663374E-2,2.2274518E-2,2.0313254E-1,4.390353E-2,1.5172927E-1,1.6854513E-1,1.2887569E-1,2.8901149E-2,2.0060425E-1,1.2507519E-1,-3.0122822E-2,1.2784387E-1,2.086052E-1],"split_indices":[0,0,0,2,5,5,0,5,0,1,0,1,0,1,1,0,0,5,5,0,5,2,1,0,5,1,1,5,5,0,2,2,1,2,5,1,3,2,2,2,1,0,0,5,1,5,5,1,3,3,0,3,5,5,3,3,4,2,4,5,4,0,4,0,0,0,0,0,0,0,0,0,0,0,0,0,0,0,0,0,0,0,0,0,0,0,0,0,0,0,0,0,0,0,0,0,0,0,0,0,0,0,0,0,0,0,0,0,0,0,0,0,0,0,0,0,0,0,0,0,0,0,0,0,0,0,0],"split_type":[0,0,0,0,0,0,0,0,0,0,0,0,0,0,0,0,0,0,0,0,0,0,0,0,0,0,0,0,0,0,0,0,0,0,0,0,0,0,0,0,0,0,0,0,0,0,0,0,0,0,0,0,0,0,0,0,0,0,0,0,0,0,0,0,0,0,0,0,0,0,0,0,0,0,0,0,0,0,0,0,0,0,0,0,0,0,0,0,0,0,0,0,0,0,0,0,0,0,0,0,0,0,0,0,0,0,0,0,0,0,0,0,0,0,0,0,0,0,0,0,0,0,0,0,0,0,0],"sum_hessian":[1.6512E4,1.2932E4,3.58E3,6.25E3,6.682E3,2.316E3,1.264E3,2.62E3,3.63E3,1.72E3,4.962E3,9.81E2,1.335E3,6.43E2,6.21E2,8.23E2,1.797E3,1.795E3,1.835E3,6.6E2,1.06E3,2.275E3,2.687E3,2E2,7.81E2,7.29E2,6.06E2,4.03E2,2.4E2,3.44E2,2.77E2,4.19E2,4.04E2,7.28E2,1.069E3,1.01E2,1.694E3,3.44E2,1.491E3,2.24E2,4.36E2,3.79E2,6.81E2,6.72E2,1.603E3,2.396E3,2.91E2,1.08E2,9.2E1,1E2,6.81E2,2.64E2,4.65E2,5.87E2,1.9E1,7.9E1,3.24E2,3.9E1,2.01E2,1.9E2,1.54E2,4E0,2.73E2,1.56E2,2.63E2,3.4E2,6.4E1,1.42E2,5.86E2,5.42E2,5.27E2,1E0,1E2,1.693E3,1E0,1.71E2,1.73E2,5.83E2,9.08E2,1.23E2,1.01E2,2.34E2,2.02E2,1.84E2,1.95E2,4.05E2,2.76E2,3.79E2,2.93E2,1.439E3,1.64E2,1.258E3,1.138E3,1.78E2,1.13E2,3E0,1.05E2,5.1E1,4.1E1,5E0,9.5E1,4.2E2,2.61E2,1.11E2,1.53E2,3.47E2,1.18E2,3.05E2,2.82E2,1.7E1,2E0,8E0,7.1E1,1.17E2,2.07E2,1E0,3.8E1,4E0,1.97E2,5.6E1,1.34E2,4E0,1.5E2,1E0,3E0,9E0,2.64E2],"tree_param":{"num_deleted":"0","num_feature":"6","num_nodes":"127","size_leaf_vector":"1"}},{"base_weights":[6.1719277E-4,-1.936616E-1,9.493093E-1,-4.4956064E-1,6.0257375E-2,7.311163E-1,1.6228607E0,-8.022974E-2,-5.150188E-1,5.4197454E-1,-8.746115E-2,1.1093303E0,5.393449E-1,1.3259084E0,1.7501922E0,-2.3309965E-1,2.414071E-1,-2.786346E-1,-5.800451E-1,1.09783515E-1,7.1140313E-1,-1.8895619E-1,1.4864692E-1,7.5130326E-1,1.2553072E0,3.6547214E-1,8.1136495E-1,1.0611945E0,1.6119896E0,2.4916571E-1,1.7655649E0,-4.7093824E-2,-4.243757E-1,4.228914E-1,-1.8386543E-1,-4.6778463E-2,-4.0449888E-1,-7.0525694E-1,-4.0507597E-1,-2.5023406E-3,3.6065263E-1,1.0908871E0,4.667113E-1,-2.3781198E-1,1.4001304E-1,-6.9910996E-2,2.7531898E-1,-8.3167754E-2,8.303799E-1,1.8613318E0,1.1583551E0,4.9298328E-1,1.9296268E-1,7.0359915E-1,1.1867381E0,6.915823E-1,1.1489416E0,4.510088E-2,1.6435722E0,-1.7628686E-1,1.18821435E-1,1.6502991E0,1.8890104E0,-1.9933982E-2,1.9953271E-2,-6.655598E-2,-3.170895E-2,-1.2281257E-2,5.72662E-2,-3.375868E-2,2.9080221E-2,-2.8524533E-2,8.429172E-3,-5.010841E-2,-2.6263013E-2,-8.256714E-2,-6.430309E-2,-2.5921727E-2,-5.7014592E-2,-2.704738E-2,6.6627213E-3,9.323695E-3,5.881366E-2,8.3781905E-2,1.3996665E-1,2.5658159E-2,7.214879E-2,-1.2703148E-2,-3.2244228E-2,-8.212525E-3,2.8228058E-2,-3.1337764E-2,-5.327832E-4,5.221367E-2,1.5241939E-2,9.6201105E-3,-6.046408E-2,6.1804015E-2,1.0718908E-1,6.417238E-2,1.9275305E-1,9.621474E-2,1.4590882E-1,4.3561205E-2,9.44033E-2,9.4551244E-5,2.4129031E-2,8.059183E-2,6.036521E-2,8.8683166E-2,1.3785242E-1,-1.7227484E-2,8.23194E-2,6.903354E-3,1.17297366E-1,1.6607568E-1,5.5726808E-2,1.619953E-2,-4.5580674E-2,1.4047824E-1,1.7850679E-1,1.0628219E-1,1.9313619E-1],"categories":[],"categories_nodes":[],"categories_segments":[],"categories_sizes":[],"default_left":[0,0,0,0,0,0,0,0,0,0,0,0,0,0,0,0,0,0,0,0,0,0,0,0,0,0,0,0,0,0,0,0,0,0,0,0,0,0,0,0,0,0,0,0,0,0,0,0,0,0,0,0,0,0,0,0,0,0,0,0,0,0,0,0,0,0,0,0,0,0,0,0,0,0,0,0,0,0,0,0,0,0,0,0,0,0,0,0,0,0,0,0,0,0,0,0,0,0,0,0,0,0,0,0,0,0,0,0,0,0,0,0,0,0,0,0,0,0,0,0,0,0,0],"id":4,"left_children":[1,3,5,7,9,11,13,15,17,19,21,23,25,27,29,31,33,35,37,39,41,43,45,47,49,51,53,55,57,59,61,63,65,67,69,71,73,75,77,79,81,83,85,87,89,91,93,95,97,99,101,103,105,107,109,111,113,-1,115,117,-1,119,121,-1,-1,-1,-1,-1,-1,-1,-1,-1,-1,-1,-1,-1,-1,-1,-1,-1,-1,-1,-1,-1,-1,-1,-1,-1,-1,-1,-1,-1,-1,-1,-1,-1,-1,-1,-1,-1,-1,-1,-1,-1,-1,-1,-1,-1,-1,-1,-1,-1,-1,-1,-1,-1,-1,-1,-1,-1,-1,-1,-1],"loss_changes":[3.0437075E3,8.906754E2,4.1134204E2,1.6500647E2,4.8968936E2,1.5331165E2,2.3618042E1,5.065076E1,8.897583E1,1.1818109E2,1.2624541E2,3.632086E1,6.639206E1,1.4192566E1,1.0566895E1,2.4813786E1,2.5701612E1,3.6546623E1,9.933093E1,1.2845991E1,1.0720459E2,5.9242737E1,4.387257E1,1.3860382E1,2.751538E1,1.8866173E1,2.1373352E1,2.8378525E0,2.8887634E0,2.6065903E0,3.5986328E0,1.336928E1,8.690208E0,1.911351E1,7.394827E0,1.3839149E1,1.0994766E1,1.9317749E1,4.557422E1,5.871841E0,8.522587E0,3.4303833E1,3.7664948E1,3.0035278E1,1.5097843E1,9.149609E0,3.03452E1,1.8353516E0,9.132477E0,4.253128E0,2.4440796E1,1.2398018E1,3.414713E0,3.9006958E0,5.737137E0,2.8704643E0,2.2287827E0,0E0,8.6657715E-1,5.4662144E-1,0E0,5.8305054E0,5.680176E0,0E0,0E0,0E0,0E0,0E0,0E0,0E0,0E0,0E0,0E0,0E0,0E0,0E0,0E0,0E0,0E0,0E0,0E0,0E0,0E0,0E0,0E0,0E0,0E0,0E0,0E0,0E0,0E0,0E0,0E0,0E0,0E0,0E0,0E0,0E0,0E0,0E0,0E0,0E0,0E0,0E0,0E0,0E0,0E0,0E0,0E0,0E0,0E0,0E0,0E0,0E0,0E0,0E0,0E0,0E0,0E0,0E0,0E0,0E0,0E0],"parents":[2147483647,0,0,1,1,2,2,3,3,4,4,5,5,6,6,7,7,8,8,9,9,10,10,11,11,12,12,13,13,14,14,15,15,16,16,17,17,18,18,19,19,20,20,21,21,22,22,23,23,24,24,25,25,26,26,27,27,28,28,29,29,30,30,31,31,32,32,33,33,34,34,35,35,36,36,37,37,38,38,39,39,40,40,41,41,42,42,43,43,44,44,45,45,46,46,47,47,48,48,49,49,50,50,51,51,52,52,53,53,54,54,55,55,56,56,58,58,59,59,61,61,62,62],"right_children":[2,4,6,8,10,12,14,16,18,20,22,24,26,28,30,32,34,36,38,40,42,44,46,48,50,52,54,56,58,60,62,64,66,68,70,72,74,76,78,80,82,84,86,88,90,92,94,96,98,100,102,104,106,108,110,112,114,-1,116,118,-1,120,122,-1,-1,-1,-1,-1,-1,-1,-1,-1,-1,-1,-1,-1,-1,-1,-1,-1,-1,-1,-1,-1,-1,-1,-1,-1,-1,-1,-1,-1,-1,-1,-1,-1,-1,-1,-1,-1,-1,-1,-1,-1,-1,-1,-1,-1,-1,-1,-1,-1,-1,-1,-1,-1,-1,-1,-1,-1,-1,-1,-1],"split_conditions":[5.3681E0,3.1875E0,7.6659E0,2.1589403E0,2.395105E0,2.6575E0,1.9E1,2.6998E0,3.8755245E0,2E1,4.5417E0,2.2E1,6.2924E0,8.7471E0,4.805646E0,4.2060304E0,4.675079E0,3.1092784E0,2.5909E0,4.3542E0,2.0605633E0,4.3E1,2.1E1,3.69E2,2.0756502E0,3.1413794E0,2.8E1,9.8153037E-1,8.5714287E-1,8.917526E-1,9.281E0,2.2467E0,1.9392E0,2.2E1,1.1334982E0,1.9E0,1.864E3,1.875E0,5.0774775E0,3.375E0,1.118E3,3.9187E0,4.0729E0,2.8894737E0,3.6333E0,9.928741E-1,2.734E0,8.442105E0,1.0707692E0,9.0967745E-1,6.3525E0,3.7E1,9.24E2,3.1170213E0,6.618834E0,8E0,5.1144576E0,4.510088E-2,1.1415929E1,4.1E1,1.18821435E-1,2.9E1,1.38E2,-1.9933982E-2,1.9953271E-2,-6.655598E-2,-3.170895E-2,-1.2281257E-2,5.72662E-2,-3.375868E-2,2.9080221E-2,-2.8524533E-2,8.429172E-3,-5.010841E-2,-2.6263013E-2,-8.256714E-2,-6.430309E-2,-2.5921727E-2,-5.7014592E-2,-2.704738E-2,6.6627213E-3,9.323695E-3,5.881366E-2,8.3781905E-2,1.3996665E-1,2.5658159E-2,7.214879E-2,-1.2703148E-2,-3.2244228E-2,-8.212525E-3,2.8228058E-2,-3.1337764E-2,-5.327832E-4,5.221367E-2,1.5241939E-2,9.6201105E-3,-6.046408E-2,6.1804015E-2,1.0718908E-1,6.417238E-2,1.9275305E-1,9.621474E-2,1.4590882E-1,4.3561205E-2,9.44033E-2,9.4551244E-5,2.4129031E-2,8.059183E-2,6.036521E-2,8.8683166E-2,1.3785242E-1,-1.7227484E-2,8.23194E-2,6.903354E-3,1.17297366E-1,1.6607568E-1,5.5726808E-2,1.619953E-2,-4.5580674E-2,1.4047824E-1,1.7850679E-1,1.0628219E-1,1.9313619E-1],"split_indices":[0,0,0,5,5,5,1,0,2,1,0,1,0,0,2,2,2,5,0,0,5,1,1,4,5,5,1,3,3,3,0,0,0,1,3,0,4,0,2,0,4,0,0,5,0,3,5,2,3,3,0,1,4,5,2,1,2,0,2,4,0,1,4,0,0,0,0,0,0,0,0,0,0,0,0,0,0,0,0,0,0,0,0,0,0,0,0,0,0,0,0,0,0,0,0,0,0,0,0,0,0,0,0,0,0,0,0,0,0,0,0,0,0,0,0,0,0,0,0,0,0,0,0],"split_type":[0,0,0,0,0,0,0,0,0,0,0,0,0,0,0,0,0,0,0,0,0,0,0,0,0,0,0,0,0,0,0,0,0,0,0,0,0,0,0,0,0,0,0,0,0,0,0,0,0,0,0,0,0,0,0,0,0,0,0,0,0,0,0,0,0,0,0,0,0,0,0,0,0,0,0,0,0,0,0,0,0,0,0,0,0,0,0,0,0,0,0,0,0,0,0,0,0,0,0,0,0,0,0,0,0,0,0,0,0,0,0,0,0,0,0,0,0,0,0,0,0,0,0],"sum_hessian":[1.6512E4,1.3706E4,2.806E3,6.826E3,6.88E3,2.121E3,6.85E2,1.028E3,5.798E3,1.614E3,5.266E3,7.12E2,1.409E3,2.09E2,4.76E2,6.97E2,3.31E2,1.252E3,4.546E3,4.55E2,1.159E3,3.683E3,1.583E3,2.08E2,5.04E2,8.61E2,5.48E2,1.11E2,9.8E1,5E0,4.71E2,3.54E2,3.43E2,2.32E2,9.9E1,4.41E2,8.11E2,2.648E3,1.898E3,3.15E2,1.4E2,4.53E2,7.06E2,3.207E3,4.76E2,5.81E2,1.002E3,1.8E1,1.9E2,6.7E1,4.37E2,4.94E2,3.67E2,4.28E2,1.2E2,2.3E1,8.8E1,3E0,9.5E1,4E0,1E0,2.51E2,2.2E2,2.19E2,1.35E2,1.04E2,2.39E2,5E1,1.82E2,7.5E1,2.4E1,1.56E2,2.85E2,4.81E2,3.3E2,8.98E2,1.75E3,1.009E3,8.89E2,6.4E1,2.51E2,6.5E1,7.5E1,2.51E2,2.02E2,3.88E2,3.18E2,1.39E3,1.817E3,1.86E2,2.9E2,1.21E2,4.6E2,3.32E2,6.7E2,1.4E1,4E0,1.03E2,8.7E1,4E0,6.3E1,2.67E2,1.7E2,4.4E2,5.4E1,7.4E1,2.93E2,2.08E2,2.2E2,4.9E1,7.1E1,3E0,2E1,2E0,8.6E1,9.3E1,2E0,2E0,2E0,9.3E1,1.58E2,1.2E1,2.08E2],"tree_param":{"num_deleted":"0","num_feature":"6","num_nodes":"123","size_leaf_vector":"1"}},{"base_weights":[6.9515494E-4,-1.9343705E-1,7.7103305E-1,-4.6293807E-1,-1.3256661E-2,4.9099112E-1,1.2264602E0,-2.2315137E-1,-5.592388E-1,3.448145E-1,-1.5320757E-1,8.9017355E-1,3.232273E-1,9.699345E-1,1.4900874E0,-4.0966436E-2,-3.8486606E-1,-3.2701808E-1,-6.1226743E-1,5.700568E-2,5.210508E-1,-2.8920972E-1,-1.895762E-2,5.15294E-1,1.0563543E0,2.7831385E-1,8.019911E-1,7.7751005E-1,1.2884803E0,1.3514899E0,1.6567279E0,-3.1171766E-1,7.866156E-2,-1.6431697E-1,-4.4427994E-1,-4.7712317E-1,-1.5394938E-1,-7.0575017E-1,-5.209746E-1,-5.9626665E-2,3.0833587E-1,9.851817E-1,3.704432E-1,-1.9051163E-1,-4.552768E-1,-6.8344556E-2,2.7489272E-1,-3.066869E-1,5.8791703E-1,1.4538403E0,9.093388E-1,1.1675279E-1,3.969067E-1,-3.4641314E-1,8.7365985E-1,1.1544797E0,7.197765E-1,1.6344041E0,1.213602E0,1.1465027E0,1.5953678E0,2.4360494E-1,1.6764684E0,-1.6332412E-4,-4.5738395E-2,3.7641816E-2,-7.6376E-3,-2.9154116E-2,1.116243E-2,-6.422014E-2,-3.5838977E-2,1.24201335E-1,-4.8501957E-2,-3.6757104E-2,6.991636E-3,-7.11922E-2,5.443048E-2,-3.5523143E-2,-5.950276E-2,1.7560536E-2,-2.1672811E-2,3.926092E-3,4.983235E-2,6.031094E-2,1.2705848E-1,1.6134003E-2,5.6156825E-2,-2.2309672E-2,2.0650674E-2,-5.2808996E-2,-3.17359E-2,-1.5481536E-2,5.9205596E-3,1.7337285E-2,5.7388064E-2,-9.1889285E-2,-1.5359372E-2,3.9324112E-2,9.0832375E-2,1.4759783E-1,-5.0174296E-2,8.048045E-2,1.1765789E-1,2.7125431E-2,2.1511137E-3,5.1767178E-2,2.856925E-2,-7.121446E-2,1.1068534E-1,4.248596E-2,9.9099845E-2,2.2191687E-2,1.399267E-1,6.258934E-2,8.581424E-2,1.795218E-2,1.6671057E-1,2.8388832E-2,1.2309503E-1,9.3787156E-2,1.2791933E-1,2.0321218E-2,1.6309004E-1,1.12880364E-1,-2.5989562E-2,1.0677252E-1,1.6931134E-1],"categories":[],"categories_nodes":[],"categories_segments":[],"categories_sizes":[],"default_left":[0,0,0,0,0,0,0,0,0,0,0,0,0,0,0,0,0,0,0,0,0,0,0,0,0,0,0,0,0,0,0,0,0,0,0,0,0,0,0,0,0,0,0,0,0,0,0,0,0,0,0,0,0,0,0,0,0,0,0,0,0,0,0,0,0,0,0,0,0,0,0,0,0,0,0,0,0,0,0,0,0,0,0,0,0,0,0,0,0,0,0,0,0,0,0,0,0,0,0,0,0,0,0,0,0,0,0,0,0,0,0,0,0,0,0,0,0,0,0,0,0,0,0,0,0,0,0],"id":5,"left_children":[1,3,5,7,9,11,13,15,17,19,21,23,25,27,29,31,33,35,37,39,41,43,45,47,49,51,53,55,57,59,61,63,65,67,69,71,73,75,77,79,81,83,85,87,89,91,93,95,97,99,101,103,105,107,109,111,113,115,117,119,121,123,125,-1,-1,-1,-1,-1,-1,-1,-1,-1,-1,-1,-1,-1,-1,-1,-1,-1,-1,-1,-1,-1,-1,-1,-1,-1,-1,-1,-1,-1,-1,-1,-1,-1,-1,-1,-1,-1,-1,-1,-1,-1,-1,-1,-1,-1,-1,-1,-1,-1,-1,-1,-1,-1,-1,-1,-1,-1,-1,-1,-1,-1,-1,-1,-1],"loss_changes":[2.4696252E3,6.4048444E2,4.2333667E2,1.2191443E2,3.9624133E2,1.3766714E2,8.410303E1,4.4648598E1,4.6224976E1,1.12675385E2,1.0379286E2,3.739496E1,3.0999039E1,3.847278E1,1.2126587E1,2.315057E1,1.0449242E1,1.818943E1,2.5815552E1,2.4788063E1,9.59595E1,4.6200043E1,4.155318E1,1.14626045E1,2.3279785E1,2.541729E1,1.05084305E1,7.961609E0,4.258911E0,1.5418091E1,7.3465576E0,9.89123E0,2.2925823E1,6.070843E0,1.0513527E1,5.7065964E0,1.5711502E1,1.2060364E1,1.8886658E1,2.1398216E1,1.368084E1,3.598172E1,4.155278E1,2.2983162E1,1.039682E1,2.7042141E1,1.2406027E1,1.3584566E0,1.049614E1,5.5893555E0,7.7131653E0,8.293413E0,1.0140099E1,5.0402813E0,5.7403717E0,1.1560013E1,4.0484314E0,1.6037903E0,2.9085999E0,4.0878143E0,7.335968E0,2.521861E0,9.685669E-1,0E0,0E0,0E0,0E0,0E0,0E0,0E0,0E0,0E0,0E0,0E0,0E0,0E0,0E0,0E0,0E0,0E0,0E0,0E0,0E0,0E0,0E0,0E0,0E0,0E0,0E0,0E0,0E0,0E0,0E0,0E0,0E0,0E0,0E0,0E0,0E0,0E0,0E0,0E0,0E0,0E0,0E0,0E0,0E0,0E0,0E0,0E0,0E0,0E0,0E0,0E0,0E0,0E0,0E0,0E0,0E0,0E0,0E0,0E0,0E0,0E0,0E0,0E0,0E0],"parents":[2147483647,0,0,1,1,2,2,3,3,4,4,5,5,6,6,7,7,8,8,9,9,10,10,11,11,12,12,13,13,14,14,15,15,16,16,17,17,18,18,19,19,20,20,21,21,22,22,23,23,24,24,25,25,26,26,27,27,28,28,29,29,30,30,31,31,32,32,33,33,34,34,35,35,36,36,37,37,38,38,39,39,40,40,41,41,42,42,43,43,44,44,45,45,46,46,47,47,48,48,49,49,50,50,51,51,52,52,53,53,54,54,55,55,56,56,57,57,58,58,59,59,60,60,61,61,62,62],"right_children":[2,4,6,8,10,12,14,16,18,20,22,24,26,28,30,32,34,36,38,40,42,44,46,48,50,52,54,56,58,60,62,64,66,68,70,72,74,76,78,80,82,84,86,88,90,92,94,96,98,100,102,104,106,108,110,112,114,116,118,120,122,124,126,-1,-1,-1,-1,-1,-1,-1,-1,-1,-1,-1,-1,-1,-1,-1,-1,-1,-1,-1,-1,-1,-1,-1,-1,-1,-1,-1,-1,-1,-1,-1,-1,-1,-1,-1,-1,-1,-1,-1,-1,-1,-1,-1,-1,-1,-1,-1,-1,-1,-1,-1,-1,-1,-1,-1,-1,-1,-1,-1,-1,-1,-1,-1,-1],"split_conditions":[5.1228E0,2.8378E0,6.5891E0,3.9149425E0,2.448485E0,2.5952382E0,7.8287E0,3.1092784E0,2.2873304E0,2.5E1,3.8158E0,2.2E1,3.7E1,2.7E1,3E1,1.681E0,3.045238E0,2.3026E0,2.2206E0,4.0556E0,1.9598699E0,5.35426E0,3.9E1,3.54E2,2.2E0,5.5942E0,2.71E2,2.511236E0,2.2600896E0,9.281E0,4.805646E0,2.8033395E0,3.3595707E0,2.269E3,1.8485E0,3E0,2.7E1,1.8793522E1,4.59879E0,4.4529753E0,1.046E3,3.4208E0,3.6591E0,4.8E1,3.5417E0,4.5417E0,5E1,4.1E1,1.0894309E0,8.986207E0,6.091E0,2.9625669E0,3.0374532E0,5E1,5.6904764E0,1.0064934E0,7.2216E0,4.2572346E0,2.71E2,1.0072993E0,6.9E1,9.281E0,1.38E2,-1.6332412E-4,-4.5738395E-2,3.7641816E-2,-7.6376E-3,-2.9154116E-2,1.116243E-2,-6.422014E-2,-3.5838977E-2,1.24201335E-1,-4.8501957E-2,-3.6757104E-2,6.991636E-3,-7.11922E-2,5.443048E-2,-3.5523143E-2,-5.950276E-2,1.7560536E-2,-2.1672811E-2,3.926092E-3,4.983235E-2,6.031094E-2,1.2705848E-1,1.6134003E-2,5.6156825E-2,-2.2309672E-2,2.0650674E-2,-5.2808996E-2,-3.17359E-2,-1.5481536E-2,5.9205596E-3,1.7337285E-2,5.7388064E-2,-9.1889285E-2,-1.5359372E-2,3.9324112E-2,9.0832375E-2,1.4759783E-1,-5.0174296E-2,8.048045E-2,1.1765789E-1,2.7125431E-2,2.1511137E-3,5.1767178E-2,2.856925E-2,-7.121446E-2,1.1068534E-1,4.248596E-2,9.9099845E-2,2.2191687E-2,1.399267E-1,6.258934E-2,8.581424E-2,1.795218E-2,1.6671057E-1,2.8388832E-2,1.2309503E-1,9.3787156E-2,1.2791933E-1,2.0321218E-2,1.6309004E-1,1.12880364E-1,-2.5989562E-2,1.0677252E-1,1.6931134E-1],"split_indices":[0,0,0,2,5,5,0,5,5,1,0,1,1,1,1,0,2,0,0,0,5,2,1,4,5,0,4,5,5,0,2,2,2,4,0,1,1,2,2,2,4,0,0,1,0,0,1,4,3,2,0,5,5,1,2,3,0,2,4,3,4,0,4,0,0,0,0,0,0,0,0,0,0,0,0,0,0,0,0,0,0,0,0,0,0,0,0,0,0,0,0,0,0,0,0,0,0,0,0,0,0,0,0,0,0,0,0,0,0,0,0,0,0,0,0,0,0,0,0,0,0,0,0,0,0,0,0],"split_type":[0,0,0,0,0,0,0,0,0,0,0,0,0,0,0,0,0,0,0,0,0,0,0,0,0,0,0,0,0,0,0,0,0,0,0,0,0,0,0,0,0,0,0,0,0,0,0,0,0,0,0,0,0,0,0,0,0,0,0,0,0,0,0,0,0,0,0,0,0,0,0,0,0,0,0,0,0,0,0,0,0,0,0,0,0,0,0,0,0,0,0,0,0,0,0,0,0,0,0,0,0,0,0,0,0,0,0,0,0,0,0,0,0,0,0,0,0,0,0,0,0,0,0,0,0,0,0],"sum_hessian":[1.6512E4,1.3189E4,3.323E3,5.284E3,7.905E3,2.059E3,1.264E3,1.515E3,3.769E3,2.221E3,5.684E3,6.08E2,1.451E3,6.43E2,6.21E2,7.13E2,8.02E2,7.02E2,3.067E3,8.44E2,1.377E3,2.823E3,2.861E3,1.88E2,4.2E2,1.328E3,1.23E2,4.03E2,2.4E2,3.44E2,2.77E2,2.18E2,4.95E2,1.71E2,6.31E2,3.75E2,3.27E2,1.512E3,1.555E3,5.77E2,2.67E2,3.36E2,1.041E3,1.772E3,1.051E3,2.45E3,4.11E2,1.5E1,1.73E2,1.11E2,3.09E2,5.63E2,7.65E2,7E0,1.16E2,5.1E1,3.52E2,3.9E1,2.01E2,1.9E2,1.54E2,4E0,2.73E2,7E1,1.48E2,1.69E2,3.26E2,1.17E2,5.4E1,1.89E2,4.42E2,1E0,3.74E2,1.67E2,1.6E2,1.505E3,7E0,4.82E2,1.073E3,2.31E2,3.46E2,1.11E2,1.56E2,1.45E2,1.91E2,4.98E2,5.43E2,1.638E3,1.34E2,6.86E2,3.65E2,1.46E3,9.9E2,3.08E2,1.03E2,2E0,1.3E1,1.09E2,6.4E1,1.1E2,1E0,2.25E2,8.4E1,2.14E2,3.49E2,3.65E2,4E2,6E0,1E0,2.5E1,9.1E1,1.1E1,4E1,2.13E2,1.39E2,1E0,3.8E1,4E0,1.97E2,7.7E1,1.13E2,4E0,1.5E2,1E0,3E0,9E0,2.64E2],"tree_param":{"num_deleted":"0","num_feature":"6","num_nodes":"127","size_leaf_vector":"1"}},{"base_weights":[7.535564E-4,-1.5717852E-1,7.719592E-1,-3.4726426E-1,7.067518E-2,5.9492666E-1,1.3184478E0,-3.2170083E-2,-4.075354E-1,4.1130954E-1,-7.758955E-2,9.0488356E-1,4.3776765E-1,1.0688949E0,1.4255497E0,-1.9148412E-1,2.2218248E-1,-2.9602966E-1,-5.036245E-1,6.419255E-2,5.4396886E-1,-1.6188082E-1,9.20398E-2,5.4905266E-1,1.003556E0,2.951535E-1,6.608926E-1,8.4958863E-1,1.306202E0,6.894696E-1,1.4479561E0,-5.008689E-2,-3.5817677E-1,-1.9290347E-1,3.7626132E-1,-4.439514E-1,-1.522195E-1,-6.188597E-1,-3.880218E-1,1.7807847E-1,-6.7226045E-2,9.659503E-1,3.8363758E-1,-1.866289E-1,2.4728842E-1,-1.2816647E-1,1.7429386E-1,1.3783807E-3,6.382931E-1,1.533949E0,9.1398484E-1,4.0094456E-1,1.52051E-1,5.796434E-1,1.0029719E0,6.502918E-1,9.7373885E-1,3.3055782E-1,1.3332477E0,-8.627519E-2,8.751241E-1,-2.4669498E-2,1.4521673E0,-1.2751673E-2,3.3096682E-2,-5.435845E-2,-2.7149523E-2,1.0146163E-1,-2.306041E-2,7.350551E-2,2.3296725E-2,-1.9726232E-2,-5.5067725E-2,-2.0680036E-3,-2.7527327E-2,-2.4648234E-2,-6.360534E-2,-4.3007303E-2,1.5872343E-2,4.6457467E-3,4.86208E-2,-2.9637392E-3,-4.2711537E-2,-3.233942E-2,1.0093446E-1,2.8293869E-2,7.5106576E-2,-1.0897173E-2,-2.7925728E-2,5.6182183E-2,2.3307859E-3,-2.5690436E-2,-3.5813514E-3,1.216505E-2,4.8247755E-2,1.4079384E-2,-5.28676E-2,3.3466037E-2,7.7657074E-2,3.9995484E-2,1.6051655E-1,6.925174E-2,1.1041986E-1,1.7213091E-2,4.9250092E-2,-1.4359818E-3,2.075733E-2,5.0932933E-2,6.8765745E-2,6.886804E-2,1.2047714E-1,3.853743E-2,8.770756E-2,-1.612159E-2,9.933778E-2,7.662916E-3,3.8965765E-2,1.3469665E-1,4.5897987E-2,1.2859638E-2,-3.6544498E-2,1.5552579E-1,2.556333E-2,1.3466829E-1,1.5729108E-1],"categories":[],"categories_nodes":[],"categories_segments":[],"categories_sizes":[],"default_left":[0,0,0,0,0,0,0,0,0,0,0,0,0,0,0,0,0,0,0,0,0,0,0,0,0,0,0,0,0,0,0,0,0,0,0,0,0,0,0,0,0,0,0,0,0,0,0,0,0,0,0,0,0,0,0,0,0,0,0,0,0,0,0,0,0,0,0,0,0,0,0,0,0,0,0,0,0,0,0,0,0,0,0,0,0,0,0,0,0,0,0,0,0,0,0,0,0,0,0,0,0,0,0,0,0,0,0,0,0,0,0,0,0,0,0,0,0,0,0,0,0,0,0,0,0],"id":6,"left_children":[1,3,5,7,9,11,13,15,17,19,21,23,25,27,29,31,33,35,37,39,41,43,45,47,49,51,53,55,57,59,61,63,65,67,69,71,73,75,77,79,81,83,85,87,89,91,93,95,97,99,101,103,105,107,109,111,113,115,117,119,121,-1,123,-1,-1,-1,-1,-1,-1,-1,-1,-1,-1,-1,-1,-1,-1,-1,-1,-1,-1,-1,-1,-1,-1,-1,-1,-1,-1,-1,-1,-1,-1,-1,-1,-1,-1,-1,-1,-1,-1,-1,-1,-1,-1,-1,-1,-1,-1,-1,-1,-1,-1,-1,-1,-1,-1,-1,-1,-1,-1,-1,-1,-1,-1],"loss_changes":[2.0113734E3,5.9369855E2,2.7078247E2,1.4190723E2,3.149247E2,1.029718E2,1.6811401E1,4.870939E1,6.706287E1,8.704245E1,6.21409E1,2.448291E1,4.467221E1,9.819275E0,6.8688354E0,1.74002E1,2.9684196E1,6.1750763E1,4.4626648E1,7.854538E0,9.218396E1,2.944236E1,2.6159195E1,7.6724396E0,2.5059937E1,1.2988823E1,1.4677383E1,2.1379776E0,2.171585E0,2.3798304E0,3.6552124E0,1.187368E1,5.3006325E0,5.9700274E0,1.7206364E1,3.759323E1,2.3869286E1,1.063147E1,3.878566E1,1.1373737E1,3.288113E0,2.1363708E1,3.6528107E1,1.9664703E1,1.1681501E1,4.663304E0,1.699255E1,1.7740828E0,5.4081726E0,5.737976E0,1.9413727E1,1.0285149E1,3.403122E0,3.0370636E0,5.7663803E0,2.4256306E0,1.6535339E0,3.0169427E-2,5.331726E-1,2.869375E-1,5.0798006E0,0E0,3.753296E0,0E0,0E0,0E0,0E0,0E0,0E0,0E0,0E0,0E0,0E0,0E0,0E0,0E0,0E0,0E0,0E0,0E0,0E0,0E0,0E0,0E0,0E0,0E0,0E0,0E0,0E0,0E0,0E0,0E0,0E0,0E0,0E0,0E0,0E0,0E0,0E0,0E0,0E0,0E0,0E0,0E0,0E0,0E0,0E0,0E0,0E0,0E0,0E0,0E0,0E0,0E0,0E0,0E0,0E0,0E0,0E0,0E0,0E0,0E0,0E0,0E0,0E0],"parents":[2147483647,0,0,1,1,2,2,3,3,4,4,5,5,6,6,7,7,8,8,9,9,10,10,11,11,12,12,13,13,14,14,15,15,16,16,17,17,18,18,19,19,20,20,21,21,22,22,23,23,24,24,25,25,26,26,27,27,28,28,29,29,30,30,31,31,32,32,33,33,34,34,35,35,36,36,37,37,38,38,39,39,40,40,41,41,42,42,43,43,44,44,45,45,46,46,47,47,48,48,49,49,50,50,51,51,52,52,53,53,54,54,55,55,56,56,57,57,58,58,59,59,60,60,62,62],"right_children":[2,4,6,8,10,12,14,16,18,20,22,24,26,28,30,32,34,36,38,40,42,44,46,48,50,52,54,56,58,60,62,64,66,68,70,72,74,76,78,80,82,84,86,88,90,92,94,96,98,100,102,104,106,108,110,112,114,116,118,120,122,-1,124,-1,-1,-1,-1,-1,-1,-1,-1,-1,-1,-1,-1,-1,-1,-1,-1,-1,-1,-1,-1,-1,-1,-1,-1,-1,-1,-1,-1,-1,-1,-1,-1,-1,-1,-1,-1,-1,-1,-1,-1,-1,-1,-1,-1,-1,-1,-1,-1,-1,-1,-1,-1,-1,-1,-1,-1,-1,-1,-1,-1,-1,-1],"split_conditions":[5.3681E0,3.3427E0,7.6659E0,2.178501E0,2.511236E0,2.6575E0,1.9E1,2.6998E0,4.5315986E0,2E1,4.5417E0,1.8E1,6.2924E0,8.7471E0,1.38E2,4.314229E0,2.2E1,2.2328E0,2.6205E0,2.2105262E0,2.048583E0,4.8E1,1.7E1,5.64E2,2.0858505E0,3.1413794E0,3E1,1.0094192E0,8.5714287E-1,4.805646E0,3.1909723E0,1.1334982E0,1.9392E0,9.3421054E-1,3.9729729E0,3.517691E0,3.1328905E0,2.27E2,4.8E1,1.7E1,1.5272727E0,2.27E2,4.6875E0,3.0737705E0,2.805492E0,1.1E1,3.9E1,8.442105E0,1.0466961E0,9.0967745E-1,6.091E0,1.8E1,1.6E1,6.9343E0,6.618834E0,1.243E3,4.049697E0,5E0,1.1415929E1,4.675079E0,1.0018797E0,-2.4669498E-2,9.281E0,-1.2751673E-2,3.3096682E-2,-5.435845E-2,-2.7149523E-2,1.0146163E-1,-2.306041E-2,7.350551E-2,2.3296725E-2,-1.9726232E-2,-5.5067725E-2,-2.0680036E-3,-2.7527327E-2,-2.4648234E-2,-6.360534E-2,-4.3007303E-2,1.5872343E-2,4.6457467E-3,4.86208E-2,-2.9637392E-3,-4.2711537E-2,-3.233942E-2,1.0093446E-1,2.8293869E-2,7.5106576E-2,-1.0897173E-2,-2.7925728E-2,5.6182183E-2,2.3307859E-3,-2.5690436E-2,-3.5813514E-3,1.216505E-2,4.8247755E-2,1.4079384E-2,-5.28676E-2,3.3466037E-2,7.7657074E-2,3.9995484E-2,1.6051655E-1,6.925174E-2,1.1041986E-1,1.7213091E-2,4.9250092E-2,-1.4359818E-3,2.075733E-2,5.0932933E-2,6.8765745E-2,6.886804E-2,1.2047714E-1,3.853743E-2,8.770756E-2,-1.612159E-2,9.933778E-2,7.662916E-3,3.8965765E-2,1.3469665E-1,4.5897987E-2,1.2859638E-2,-3.6544498E-2,1.5552579E-1,2.556333E-2,1.3466829E-1,1.5729108E-1],"split_indices":[0,0,0,5,5,5,1,0,2,1,0,1,0,0,4,2,1,0,0,5,5,1,1,4,5,5,1,3,3,2,2,3,0,3,2,2,5,4,1,1,3,4,0,5,5,1,1,2,3,3,0,1,1,0,2,4,2,1,2,2,3,0,0,0,0,0,0,0,0,0,0,0,0,0,0,0,0,0,0,0,0,0,0,0,0,0,0,0,0,0,0,0,0,0,0,0,0,0,0,0,0,0,0,0,0,0,0,0,0,0,0,0,0,0,0,0,0,0,0,0,0,0,0,0,0],"split_type":[0,0,0,0,0,0,0,0,0,0,0,0,0,0,0,0,0,0,0,0,0,0,0,0,0,0,0,0,0,0,0,0,0,0,0,0,0,0,0,0,0,0,0,0,0,0,0,0,0,0,0,0,0,0,0,0,0,0,0,0,0,0,0,0,0,0,0,0,0,0,0,0,0,0,0,0,0,0,0,0,0,0,0,0,0,0,0,0,0,0,0,0,0,0,0,0,0,0,0,0,0,0,0,0,0,0,0,0,0,0,0,0,0,0,0,0,0,0,0,0,0,0,0,0,0],"sum_hessian":[1.6512E4,1.3706E4,2.806E3,7.472E3,6.234E3,2.121E3,6.85E2,1.2E3,6.272E3,1.89E3,4.344E3,7.12E2,1.409E3,2.09E2,4.76E2,7.38E2,4.62E2,2.905E3,3.367E3,5.23E2,1.367E3,2.902E3,1.442E3,1.56E2,5.56E2,8.61E2,5.48E2,1.11E2,9.8E1,1.5E1,4.61E2,4E2,3.38E2,1.25E2,3.37E2,1.431E3,1.474E3,1.684E3,1.683E3,2.8E2,2.43E2,3.75E2,9.92E2,2.737E3,1.65E2,3.92E2,1.05E3,2.2E1,1.34E2,7.8E1,4.78E2,4.94E2,3.67E2,4.45E2,1.03E2,4.5E1,6.6E1,3E0,9.5E1,3E0,1.2E1,1E0,4.6E2,3.33E2,6.7E1,1.06E2,2.32E2,3E0,1.22E2,9.5E1,2.42E2,4.33E2,9.98E2,7.13E2,7.61E2,7.5E1,1.609E3,1.563E3,1.2E2,1.97E2,8.3E1,2.21E2,2.2E1,1.2E1,3.63E2,7.8E2,2.12E2,1.49E3,1.247E3,6.8E1,9.7E1,1.63E2,2.29E2,8.98E2,1.52E2,1.8E1,4E0,4.3E1,9.1E1,5E0,7.3E1,2.23E2,2.55E2,1.42E2,3.52E2,9.2E1,2.75E2,2.73E2,1.72E2,4.2E1,6.1E1,2.2E1,2.3E1,1E0,6.5E1,1E0,2E0,9.3E1,2E0,2E0,1E0,5E0,7E0,2.52E2,2.08E2],"tree_param":{"num_deleted":"0","num_feature":"6","num_nodes":"125","size_leaf_vector":"1"}},{"base_weights":[7.892214E-4,-1.8743254E-1,5.27282E-1,-3.840092E-1,-4.6097487E-2,3.1157708E-1,9.552209E-1,-1.773101E-1,-4.6602723E-1,3.4852096E-1,-1.3805941E-1,6.83815E-1,1.8678173E-1,7.6455086E-1,1.2099555E0,-4.8782667E-3,-2.9601476E-1,-2.825746E-1,-5.0812405E-1,5.5167608E-2,5.2686423E-1,-1.661834E-1,2.4930757E-1,3.6460254E-1,8.2922834E-1,1.7691937E-3,2.6088122E-1,5.8568615E-1,1.008826E0,1.0930171E0,1.3507245E0,-2.6903367E-1,1.17101826E-1,-4.041768E-1,-1.6298756E-1,-5.229855E-1,-2.1205314E-1,-6.263212E-1,-4.6187088E-1,-9.8603316E-2,1.852529E-1,1.2198863E-1,6.6774964E-1,-2.6240996E-1,-6.8518594E-2,4.6683538E-1,6.924122E-2,-3.9897949E-1,4.4768363E-1,6.146282E-1,1.0806644E0,-1.1119259E-1,1.2300895E-1,3.7356168E-1,1.3145241E-1,7.903561E-1,4.960758E-1,9.352871E-1,1.3022051E0,9.2209744E-1,1.2965825E0,1.3709009E0,3.7376615E-1,-8.840757E-2,-1.94213E-2,3.4539342E-2,-1.0175504E-3,-4.6069685E-2,-2.4701064E-2,9.98143E-2,-1.839479E-2,7.7337876E-4,-5.9328467E-2,-3.4640778E-2,-4.505749E-3,-4.470509E-2,-6.542399E-2,-3.309275E-2,-5.1365383E-2,5.20163E-3,-2.2692328E-2,-6.789788E-3,3.84598E-2,-4.319791E-3,4.2684805E-2,1.2187896E-1,5.786199E-2,-1.1760919E-2,-3.9400104E-2,5.2242517E-3,-1.7756082E-2,1.7673517E-2,7.123236E-2,-1.7153572E-2,2.592793E-2,-9.863608E-2,-2.2340653E-2,3.334246E-2,8.192204E-2,7.0993915E-2,2.5236676E-2,1.368336E-1,9.033537E-2,-3.0273259E-2,-4.340786E-3,-3.8208184E-3,2.5514543E-2,2.693959E-2,5.7609487E-2,1.6345285E-2,-2.1798609E-2,5.5379886E-2,1.0392783E-1,4.4365104E-2,7.59665E-2,9.790721E-2,5.4495014E-2,2.668333E-2,1.3458864E-1,8.7378815E-2,1.516349E-1,1.5975723E-2,1.325639E-1,1.249032E-2,1.3750379E-1,-3.8768865E-2,7.558858E-2],"categories":[],"categories_nodes":[],"categories_segments":[],"categories_sizes":[],"default_left":[0,0,0,0,0,0,0,0,0,0,0,0,0,0,0,0,0,0,0,0,0,0,0,0,0,0,0,0,0,0,0,0,0,0,0,0,0,0,0,0,0,0,0,0,0,0,0,0,0,0,0,0,0,0,0,0,0,0,0,0,0,0,0,0,0,0,0,0,0,0,0,0,0,0,0,0,0,0,0,0,0,0,0,0,0,0,0,0,0,0,0,0,0,0,0,0,0,0,0,0,0,0,0,0,0,0,0,0,0,0,0,0,0,0,0,0,0,0,0,0,0,0,0,0,0,0,0],"id":7,"left_children":[1,3,5,7,9,11,13,15,17,19,21,23,25,27,29,31,33,35,37,39,41,43,45,47,49,51,53,55,57,59,61,63,65,67,69,71,73,75,77,79,81,83,85,87,89,91,93,95,97,99,101,103,105,107,109,111,113,115,117,119,121,123,125,-1,-1,-1,-1,-1,-1,-1,-1,-1,-1,-1,-1,-1,-1,-1,-1,-1,-1,-1,-1,-1,-1,-1,-1,-1,-1,-1,-1,-1,-1,-1,-1,-1,-1,-1,-1,-1,-1,-1,-1,-1,-1,-1,-1,-1,-1,-1,-1,-1,-1,-1,-1,-1,-1,-1,-1,-1,-1,-1,-1,-1,-1,-1,-1],"loss_changes":[1.6364941E3,3.3796466E2,4.011521E2,8.61745E1,2.5690784E2,1.3426245E2,6.984192E1,2.961642E1,2.7982727E1,6.997188E1,6.2585632E1,3.3396942E1,2.9721382E1,3.593579E1,8.762512E0,1.9074528E1,1.226506E1,1.1451813E1,1.589856E1,1.0159959E1,4.737671E1,5.0289246E1,1.5204584E1,1.4706198E1,2.6207E1,8.5185585E0,2.252707E1,8.503082E0,6.376404E0,1.0808136E1,4.967407E0,8.4336405E0,1.1771332E1,4.0789948E0,9.577952E0,5.7501907E0,1.1853373E1,3.8616333E0,1.4286316E1,4.515112E0,1.3903814E1,1.0895911E1,2.9598114E1,5.1324554E1,3.5009983E1,1.2408157E1,9.836428E0,2.1515908E0,8.5142975E0,9.177788E0,1.0393555E1,4.1675415E0,6.4005485E0,1.7292046E1,8.109172E0,8.021568E0,4.3612976E0,4.3373413E0,2.7162552E0,4.158249E0,4.9082336E0,1.2302856E0,2.3298163E0,0E0,0E0,0E0,0E0,0E0,0E0,0E0,0E0,0E0,0E0,0E0,0E0,0E0,0E0,0E0,0E0,0E0,0E0,0E0,0E0,0E0,0E0,0E0,0E0,0E0,0E0,0E0,0E0,0E0,0E0,0E0,0E0,0E0,0E0,0E0,0E0,0E0,0E0,0E0,0E0,0E0,0E0,0E0,0E0,0E0,0E0,0E0,0E0,0E0,0E0,0E0,0E0,0E0,0E0,0E0,0E0,0E0,0E0,0E0,0E0,0E0,0E0,0E0,0E0],"parents":[2147483647,0,0,1,1,2,2,3,3,4,4,5,5,6,6,7,7,8,8,9,9,10,10,11,11,12,12,13,13,14,14,15,15,16,16,17,17,18,18,19,19,20,20,21,21,22,22,23,23,24,24,25,25,26,26,27,27,28,28,29,29,30,30,31,31,32,32,33,33,34,34,35,35,36,36,37,37,38,38,39,39,40,40,41,41,42,42,43,43,44,44,45,45,46,46,47,47,48,48,49,49,50,50,51,51,52,52,53,53,54,54,55,55,56,56,57,57,58,58,59,59,60,60,61,61,62,62],"right_children":[2,4,6,8,10,12,14,16,18,20,22,24,26,28,30,32,34,36,38,40,42,44,46,48,50,52,54,56,58,60,62,64,66,68,70,72,74,76,78,80,82,84,86,88,90,92,94,96,98,100,102,104,106,108,110,112,114,116,118,120,122,124,126,-1,-1,-1,-1,-1,-1,-1,-1,-1,-1,-1,-1,-1,-1,-1,-1,-1,-1,-1,-1,-1,-1,-1,-1,-1,-1,-1,-1,-1,-1,-1,-1,-1,-1,-1,-1,-1,-1,-1,-1,-1,-1,-1,-1,-1,-1,-1,-1,-1,-1,-1,-1,-1,-1,-1,-1,-1,-1,-1,-1,-1,-1,-1,-1],"split_conditions":[4.6875E0,2.7813E0,6.3525E0,3.8976834E0,2.2690125E0,2.5298014E0,7.8287E0,2.8965516E0,2.2873304E0,2.5E1,4.8E1,2.2E1,1.7E1,2.6E1,3E1,1.6574E0,1.753E3,1.8235E0,1.875E0,3.5268E0,1.0242826E0,3.6591E0,2.625E0,3.69E2,1.0383632E0,5.4011E0,2.9946237E0,2.805492E0,1.0746753E0,9.281E0,3.8115184E0,9.5679015E-1,3.3595707E0,2.2875E0,1.0353E0,1.7270375E0,2.7E1,4.76E2,4.471328E0,4.287395E0,1.6E1,9.36E2,1.6918138E0,5.009709E0,2.8894737E0,8.9E2,1.002E3,4.1E1,5.7214E0,2.4671474E0,2.144781E0,1.0033557E0,1.52E3,5.5942E0,3.980695E0,1.8E1,7.912245E0,3.0227273E0,1.68E2,1.1299213E0,6.9E1,1.4157609E0,4.805646E0,-8.840757E-2,-1.94213E-2,3.4539342E-2,-1.0175504E-3,-4.6069685E-2,-2.4701064E-2,9.98143E-2,-1.839479E-2,7.7337876E-4,-5.9328467E-2,-3.4640778E-2,-4.505749E-3,-4.470509E-2,-6.542399E-2,-3.309275E-2,-5.1365383E-2,5.20163E-3,-2.2692328E-2,-6.789788E-3,3.84598E-2,-4.319791E-3,4.2684805E-2,1.2187896E-1,5.786199E-2,-1.1760919E-2,-3.9400104E-2,5.2242517E-3,-1.7756082E-2,1.7673517E-2,7.123236E-2,-1.7153572E-2,2.592793E-2,-9.863608E-2,-2.2340653E-2,3.334246E-2,8.192204E-2,7.0993915E-2,2.5236676E-2,1.368336E-1,9.033537E-2,-3.0273259E-2,-4.340786E-3,-3.8208184E-3,2.5514543E-2,2.693959E-2,5.7609487E-2,1.6345285E-2,-2.1798609E-2,5.5379886E-2,1.0392783E-1,4.4365104E-2,7.59665E-2,9.790721E-2,5.4495014E-2,2.668333E-2,1.3458864E-1,8.7378815E-2,1.516349E-1,1.5975723E-2,1.325639E-1,1.249032E-2,1.3750379E-1,-3.8768865E-2,7.558858E-2],"split_indices":[0,0,0,2,5,5,0,5,5,1,1,1,1,1,1,0,4,0,0,0,3,0,5,4,3,0,5,5,3,0,5,3,2,0,0,5,1,4,2,2,1,4,5,2,5,4,4,4,0,5,5,3,4,0,5,1,2,5,4,3,4,5,2,0,0,0,0,0,0,0,0,0,0,0,0,0,0,0,0,0,0,0,0,0,0,0,0,0,0,0,0,0,0,0,0,0,0,0,0,0,0,0,0,0,0,0,0,0,0,0,0,0,0,0,0,0,0,0,0,0,0,0,0,0,0,0,0],"split_type":[0,0,0,0,0,0,0,0,0,0,0,0,0,0,0,0,0,0,0,0,0,0,0,0,0,0,0,0,0,0,0,0,0,0,0,0,0,0,0,0,0,0,0,0,0,0,0,0,0,0,0,0,0,0,0,0,0,0,0,0,0,0,0,0,0,0,0,0,0,0,0,0,0,0,0,0,0,0,0,0,0,0,0,0,0,0,0,0,0,0,0,0,0,0,0,0,0,0,0,0,0,0,0,0,0,0,0,0,0,0,0,0,0,0,0,0,0,0,0,0,0,0,0,0,0,0,0],"sum_hessian":[1.6512E4,1.2164E4,4.348E3,5.087E3,7.077E3,2.892E3,1.456E3,1.446E3,3.641E3,1.337E3,5.74E3,7.25E2,2.167E3,8.35E2,6.21E2,5.9E2,8.56E2,6.81E2,2.96E3,5.06E2,8.31E2,5.352E3,3.88E2,2.28E2,4.97E2,6.2E2,1.547E3,4.84E2,3.51E2,3.44E2,2.77E2,1.86E2,4.04E2,4.71E2,3.85E2,1.53E2,5.28E2,8.29E2,2.131E3,2.32E2,2.74E2,2.15E2,6.16E2,2.695E3,2.657E3,1.75E2,2.13E2,2.2E1,2.06E2,2.7E2,2.27E2,3.21E2,2.99E2,8.26E2,7.21E2,1.45E2,3.39E2,2.84E2,6.7E1,1.9E2,1.54E2,2.71E2,6E0,1.9E1,1.67E2,1.44E2,2.6E2,3.45E2,1.26E2,6E0,3.79E2,1.8E1,1.35E2,2.92E2,2.36E2,1.14E2,7.15E2,6.06E2,1.525E3,1.07E2,1.25E2,1.21E2,1.53E2,1.4E2,7.5E1,8.4E1,5.32E2,1.284E3,1.411E3,1.261E3,1.396E3,8.1E1,9.4E1,9.4E1,1.19E2,4E0,1.8E1,1.59E2,4.7E1,2.13E2,5.7E1,8.4E1,1.43E2,8.3E1,2.38E2,1.35E2,1.64E2,5.47E2,2.79E2,6.61E2,6E1,7.6E1,6.9E1,2.85E2,5.4E1,2.54E2,3E1,3E0,6.4E1,1.78E2,1.2E1,4E0,1.5E2,1E0,2.7E2,2E0,4E0],"tree_param":{"num_deleted":"0","num_feature":"6","num_nodes":"127","size_leaf_vector":"1"}},{"base_weights":[7.988282E-4,-1.17037795E-1,6.864111E-1,-2.6554117E-1,9.569027E-2,5.339986E-1,1.0713296E0,-9.932783E-3,-3.231299E-1,4.7463864E-1,5.5866376E-3,8.006387E-1,3.9998716E-1,8.629725E-1,1.1608132E0,-1.7576458E-1,1.8316023E-1,-4.146824E-1,-2.4126153E-1,1.2565583E-1,6.2282896E-1,1.0771677E-1,-1.1453276E-1,5.477827E-1,9.041453E-1,3.614357E-1,8.8859206E-1,6.8269414E-1,1.0582069E0,5.46653E-1,1.1795702E0,-1.1878041E-2,-2.6318935E-1,-1.3865313E-1,3.1331286E-1,-1.551289E-1,-4.7784403E-1,-9.1412604E-2,-3.420288E-1,1.896632E-4,2.9861856E-1,9.8992E-1,4.6685085E-1,-8.203449E-2,1.9229016E-1,-1.9084452E-1,-1.4623989E-2,1.09780416E-1,6.327777E-1,7.4947053E-1,1.1700556E0,2.60821E-1,5.3329575E-1,-4.872045E-1,9.6347195E-1,3.143258E-1,7.3641783E-1,4.2139286E-1,1.0947607E0,2.7962413E-1,1.2778334E-1,-2.1497577E-2,1.1830616E0,-2.6393488E-2,1.4625861E-2,-4.2090584E-2,-1.8941551E-2,-4.4545934E-2,-4.13957E-3,9.615269E-2,2.443927E-2,3.616479E-3,-2.4881694E-2,-5.5550497E-2,-4.297863E-2,1.9616548E-3,-2.3540992E-2,-3.62044E-2,6.9695077E-4,-9.304215E-3,1.7043632E-2,1.2029647E-2,5.5617012E-2,7.716643E-2,1.3021289E-1,2.904418E-2,6.434875E-2,-1.6955502E-2,7.1723475E-3,-1.7082777E-2,2.2200136E-2,-3.4788273E-2,-1.3719723E-2,-1.741839E-2,3.965194E-3,4.8593413E-3,9.115082E-2,9.6665226E-2,4.84368E-2,9.116844E-2,6.0379993E-2,1.1857952E-1,-5.7969857E-2,1.826268E-3,3.0260993E-2,-2.2277066E-2,5.534601E-2,1.8179974E-2,-9.9380724E-2,-5.138242E-2,9.8867595E-2,-5.0587624E-2,4.6763152E-2,5.141597E-2,8.770025E-2,6.6013183E-3,5.503421E-2,1.10210314E-1,2.0962333E-2,8.375422E-2,-7.8055315E-2,1.0786492E-1,1.2653773E-1],"categories":[],"categories_nodes":[],"categories_segments":[],"categories_sizes":[],"default_left":[0,0,0,0,0,0,0,0,0,0,0,0,0,0,0,0,0,0,0,0,0,0,0,0,0,0,0,0,0,0,0,0,0,0,0,0,0,0,0,0,0,0,0,0,0,0,0,0,0,0,0,0,0,0,0,0,0,0,0,0,0,0,0,0,0,0,0,0,0,0,0,0,0,0,0,0,0,0,0,0,0,0,0,0,0,0,0,0,0,0,0,0,0,0,0,0,0,0,0,0,0,0,0,0,0,0,0,0,0,0,0,0,0,0,0,0,0,0,0,0,0,0,0],"id":8,"left_children":[1,3,5,7,9,11,13,15,17,19,21,23,25,27,29,31,33,35,37,39,41,43,45,47,49,51,53,55,57,59,61,63,65,67,69,71,73,75,77,79,81,83,85,87,89,91,93,95,97,99,101,103,105,107,109,111,113,115,117,119,-1,-1,121,-1,-1,-1,-1,-1,-1,-1,-1,-1,-1,-1,-1,-1,-1,-1,-1,-1,-1,-1,-1,-1,-1,-1,-1,-1,-1,-1,-1,-1,-1,-1,-1,-1,-1,-1,-1,-1,-1,-1,-1,-1,-1,-1,-1,-1,-1,-1,-1,-1,-1,-1,-1,-1,-1,-1,-1,-1,-1,-1,-1],"loss_changes":[1.3341696E3,4.4520343E2,1.4151782E2,1.22159424E2,1.978313E2,6.174768E1,1.1788452E1,4.8928204E1,5.0665283E1,5.7481506E1,5.7450222E1,1.4684631E1,2.1491394E1,6.6688385E0,4.8500977E0,1.1774277E1,2.9614145E1,5.2320557E1,5.3996063E1,7.2263675E0,4.42565E1,4.0633026E1,1.6404518E1,6.29652E0,1.5986237E1,1.8449432E1,9.123047E0,1.9850159E0,1.8431854E0,2.7666278E0,2.5037231E0,1.1478257E1,6.156822E0,6.0687537E0,2.2236546E1,1.124605E1,9.353027E0,2.3027195E1,1.4944031E1,3.095104E0,6.362891E0,1.4803986E1,1.6951279E1,1.0522062E1,1.8928879E1,1.0230373E1,8.08693E0,1.3783109E0,6.617466E0,5.6405334E0,4.790909E0,6.887123E0,6.1605377E0,1.8752708E0,3.4867172E0,2.2484305E0,2.5799522E0,2.8445172E-1,3.7339783E-1,8.3431425E0,0E0,0E0,2.59729E0,0E0,0E0,0E0,0E0,0E0,0E0,0E0,0E0,0E0,0E0,0E0,0E0,0E0,0E0,0E0,0E0,0E0,0E0,0E0,0E0,0E0,0E0,0E0,0E0,0E0,0E0,0E0,0E0,0E0,0E0,0E0,0E0,0E0,0E0,0E0,0E0,0E0,0E0,0E0,0E0,0E0,0E0,0E0,0E0,0E0,0E0,0E0,0E0,0E0,0E0,0E0,0E0,0E0,0E0,0E0,0E0,0E0,0E0,0E0,0E0],"parents":[2147483647,0,0,1,1,2,2,3,3,4,4,5,5,6,6,7,7,8,8,9,9,10,10,11,11,12,12,13,13,14,14,15,15,16,16,17,17,18,18,19,19,20,20,21,21,22,22,23,23,24,24,25,25,26,26,27,27,28,28,29,29,30,30,31,31,32,32,33,33,34,34,35,35,36,36,37,37,38,38,39,39,40,40,41,41,42,42,43,43,44,44,45,45,46,46,47,47,48,48,49,49,50,50,51,51,52,52,53,53,54,54,55,55,56,56,57,57,58,58,59,59,62,62],"right_children":[2,4,6,8,10,12,14,16,18,20,22,24,26,28,30,32,34,36,38,40,42,44,46,48,50,52,54,56,58,60,62,64,66,68,70,72,74,76,78,80,82,84,86,88,90,92,94,96,98,100,102,104,106,108,110,112,114,116,118,120,-1,-1,122,-1,-1,-1,-1,-1,-1,-1,-1,-1,-1,-1,-1,-1,-1,-1,-1,-1,-1,-1,-1,-1,-1,-1,-1,-1,-1,-1,-1,-1,-1,-1,-1,-1,-1,-1,-1,-1,-1,-1,-1,-1,-1,-1,-1,-1,-1,-1,-1,-1,-1,-1,-1,-1,-1,-1,-1,-1,-1,-1,-1],"split_conditions":[5.5942E0,3.5547E0,7.6659E0,2.232E0,2.3433242E0,2.6575E0,1.9E1,2.6719E0,2.5125E0,2E1,2.9758065E0,2.2E1,3.7E1,8.7471E0,1.38E2,3.8755245E0,2.2E1,3.6454353E0,4.728395E0,1.6E1,1.9598699E0,2.1E1,4.5213E0,5.64E2,1.0441177E0,6.5095E0,1.03E2,9.683908E-1,6.3003E0,1.2350746E0,3.1909723E0,1.7235E0,1.9392E0,1.7270375E0,1.6103723E0,3.1735792E0,1.875E0,3.2703583E0,5E1,4.5878E0,1.0911736E0,1.0829694E0,1.0448431E0,4.6173E0,4.86E2,1.8E1,1.6E1,7.5177E0,2.2600896E0,2.4542253E0,1.1415929E1,1.3E1,2.6877055E0,6.9E1,4.546318E0,8E0,8E0,5E0,3.6513762E0,1.0018797E0,1.2778334E-1,-2.1497577E-2,8.7471E0,-2.6393488E-2,1.4625861E-2,-4.2090584E-2,-1.8941551E-2,-4.4545934E-2,-4.13957E-3,9.615269E-2,2.443927E-2,3.616479E-3,-2.4881694E-2,-5.5550497E-2,-4.297863E-2,1.9616548E-3,-2.3540992E-2,-3.62044E-2,6.9695077E-4,-9.304215E-3,1.7043632E-2,1.2029647E-2,5.5617012E-2,7.716643E-2,1.3021289E-1,2.904418E-2,6.434875E-2,-1.6955502E-2,7.1723475E-3,-1.7082777E-2,2.2200136E-2,-3.4788273E-2,-1.3719723E-2,-1.741839E-2,3.965194E-3,4.8593413E-3,9.115082E-2,9.6665226E-2,4.84368E-2,9.116844E-2,6.0379993E-2,1.1857952E-1,-5.7969857E-2,1.826268E-3,3.0260993E-2,-2.2277066E-2,5.534601E-2,1.8179974E-2,-9.9380724E-2,-5.138242E-2,9.8867595E-2,-5.0587624E-2,4.6763152E-2,5.141597E-2,8.770025E-2,6.6013183E-3,5.503421E-2,1.10210314E-1,2.0962333E-2,8.375422E-2,-7.8055315E-2,1.0786492E-1,1.2653773E-1],"split_indices":[0,0,0,5,5,5,1,0,0,1,5,1,1,0,4,2,1,2,2,1,5,1,0,4,3,0,4,3,2,3,2,0,0,5,5,5,0,5,1,0,3,3,3,0,4,1,1,0,5,5,2,1,5,4,2,1,0,1,3,3,0,0,0,0,0,0,0,0,0,0,0,0,0,0,0,0,0,0,0,0,0,0,0,0,0,0,0,0,0,0,0,0,0,0,0,0,0,0,0,0,0,0,0,0,0,0,0,0,0,0,0,0,0,0,0,0,0,0,0,0,0,0,0],"split_type":[0,0,0,0,0,0,0,0,0,0,0,0,0,0,0,0,0,0,0,0,0,0,0,0,0,0,0,0,0,0,0,0,0,0,0,0,0,0,0,0,0,0,0,0,0,0,0,0,0,0,0,0,0,0,0,0,0,0,0,0,0,0,0,0,0,0,0,0,0,0,0,0,0,0,0,0,0,0,0,0,0,0,0,0,0,0,0,0,0,0,0,0,0,0,0,0,0,0,0,0,0,0,0,0,0,0,0,0,0,0,0,0,0,0,0,0,0,0,0,0,0,0,0],"sum_hessian":[1.6512E4,1.4091E4,2.421E3,8.298E3,5.793E3,1.736E3,6.85E2,1.526E3,6.772E3,1.112E3,4.681E3,5.79E2,1.157E3,2.09E2,4.76E2,8.21E2,7.05E2,3.195E3,3.577E3,3.32E2,7.8E2,2.53E3,2.151E3,1.7E2,4.09E2,1.074E3,8.3E1,1.11E2,9.8E1,1.5E1,4.61E2,2.86E2,5.35E2,2.03E2,5.02E2,6.26E2,2.569E3,1.439E3,2.138E3,1.93E2,1.39E2,2.31E2,5.49E2,7.8E2,1.75E3,1.219E3,9.32E2,2.8E1,1.42E2,2.61E2,1.48E2,6.79E2,3.95E2,4E0,7.9E1,1.5E1,9.6E1,6E0,9.2E1,1.2E1,3E0,1E0,4.6E2,1.1E2,1.76E2,1.69E2,3.66E2,4.8E1,1.55E2,4.7E1,4.55E2,2.06E2,4.2E2,9.78E2,1.591E3,8.13E2,6.26E2,2.022E3,1.16E2,1.25E2,6.8E1,8.3E1,5.6E1,1.38E2,9.3E1,2.76E2,2.73E2,4.97E2,2.83E2,1.32E2,1.618E3,3.09E2,9.1E2,2.36E2,6.96E2,2.7E1,1E0,4.2E1,1E2,1.21E2,1.4E2,1.47E2,1E0,1E2,5.79E2,1E1,3.85E2,2E0,2E0,1E0,7.8E1,2E0,1.3E1,3.9E1,5.7E1,2E0,4E0,9.1E1,1E0,8E0,4E0,2.09E2,2.51E2],"tree_param":{"num_deleted":"0","num_feature":"6","num_nodes":"123","size_leaf_vector":"1"}},{"base_weights":[7.971267E-4,-1.5783298E-1,4.1841355E-1,-3.128282E-1,-4.3202322E-2,2.4298257E-1,7.6681066E-1,-1.4455993E-1,-3.8253725E-1,3.1777743E-1,-1.1351067E-1,4.7013938E-1,1.1256293E-1,6.033123E-1,9.651798E-1,-1.7567148E-3,-2.4304849E-1,-2.3527731E-1,-4.1628885E-1,5.772397E-2,4.842185E-1,-1.3459179E-1,3.026811E-1,2.3287767E-1,5.7782066E-1,2.7247218E-2,2.1407509E-1,4.678104E-1,8.2077074E-1,8.0206144E-1,1.0610292E0,-1.8723327E-1,1.293252E-1,-3.9741818E-2,-2.9985783E-1,-3.7493423E-1,-1.518514E-1,-4.9229974E-1,-3.6760798E-1,-3.100451E-1,1.0051496E-1,1.7821725E-1,6.148073E-1,-5.3727474E-2,-2.0375296E-1,-3.1651008E-1,3.8451293E-1,-2.3995532E-2,3.287907E-1,4.2353788E-1,8.119473E-1,7.65522E-1,1.5035647E-2,-5.325377E-1,2.2855113E-1,5.921495E-1,3.4961295E-1,1.1560789E0,7.543948E-1,6.751635E-1,1.0126845E0,6.848254E-1,1.0937481E0,-2.7378041E-2,3.596541E-2,6.9011166E-3,4.751133E-2,-2.6114741E-2,1.0820158E-2,-4.6942092E-2,-2.4264883E-2,1.0141893E-1,-3.901649E-2,-8.778419E-2,-1.2485456E-2,-4.9551036E-2,1.5806805E-1,-2.3833225E-2,-4.1764647E-2,7.189751E-2,-5.131763E-2,-5.9068855E-3,2.5249103E-2,3.1137308E-2,-4.383966E-2,4.6059728E-2,9.137209E-2,1.9166576E-3,-2.0269651E-2,-3.4191392E-2,-1.1389633E-2,-5.3593885E-2,-4.9870866E-3,2.8812568E-4,4.7701515E-2,-9.306745E-2,2.6085682E-3,7.388698E-2,2.4088508E-2,5.7311725E-2,2.7976964E-2,1.1201551E-1,6.9283776E-2,9.6525155E-2,-4.8829984E-2,-3.0051905E-3,2.2811605E-2,-9.065686E-2,-2.4610547E-2,1.987571E-2,6.3068405E-2,1.8845035E-2,6.6328615E-2,2.6840473E-2,5.3054374E-2,1.20526634E-1,4.6250187E-2,7.152212E-2,1.1096878E-1,2.2384308E-2,7.3629245E-2,2.0317083E-2,1.04603484E-1,-1.616596E-2,7.6427E-2,-2.0422697E-2,1.0975802E-1],"categories":[],"categories_nodes":[],"categories_segments":[],"categories_sizes":[],"default_left":[0,0,0,0,0,0,0,0,0,0,0,0,0,0,0,0,0,0,0,0,0,0,0,0,0,0,0,0,0,0,0,0,0,0,0,0,0,0,0,0,0,0,0,0,0,0,0,0,0,0,0,0,0,0,0,0,0,0,0,0,0,0,0,0,0,0,0,0,0,0,0,0,0,0,0,0,0,0,0,0,0,0,0,0,0,0,0,0,0,0,0,0,0,0,0,0,0,0,0,0,0,0,0,0,0,0,0,0,0,0,0,0,0,0,0,0,0,0,0,0,0,0,0,0,0,0,0],"id":9,"left_children":[1,3,5,7,9,11,13,15,17,19,21,23,25,27,29,31,33,35,37,39,41,43,45,47,49,51,53,55,57,59,61,63,65,67,69,71,73,75,77,79,81,83,85,87,89,91,93,95,97,99,101,103,105,107,109,111,113,115,117,119,121,123,125,-1,-1,-1,-1,-1,-1,-1,-1,-1,-1,-1,-1,-1,-1,-1,-1,-1,-1,-1,-1,-1,-1,-1,-1,-1,-1,-1,-1,-1,-1,-1,-1,-1,-1,-1,-1,-1,-1,-1,-1,-1,-1,-1,-1,-1,-1,-1,-1,-1,-1,-1,-1,-1,-1,-1,-1,-1,-1,-1,-1,-1,-1,-1,-1],"loss_changes":[1.0939951E3,2.1262445E2,2.7766357E2,5.9626007E1,1.746751E2,8.9564865E1,4.878076E1,2.098378E1,1.778009E1,4.8536217E1,5.0577766E1,2.8045609E1,1.6648464E1,2.4279114E1,9.874451E0,1.4854912E1,1.0186481E1,7.784195E0,1.0642334E1,6.939797E0,2.7223312E1,3.0653664E1,1.4207838E1,8.532457E0,2.7036346E1,9.418698E0,9.611134E0,7.4058E0,6.249893E0,6.2120056E0,4.5315247E0,1.2073346E1,7.433615E0,6.382823E0,6.579464E0,5.7061768E0,8.180966E0,8.363892E0,1.1460129E1,9.984159E0,9.570564E0,1.7050285E1,2.1658875E1,2.7466185E1,3.6646446E1,1.9040463E0,8.682865E0,4.337998E0,8.906174E0,9.710342E0,1.0237061E1,4.7285624E0,9.902347E0,1.598175E0,1.0202404E1,7.0831757E0,3.7953377E0,1.1824417E0,2.9642334E0,4.359741E0,2.3522415E0,2.6117516E0,2.1789246E0,0E0,0E0,0E0,0E0,0E0,0E0,0E0,0E0,0E0,0E0,0E0,0E0,0E0,0E0,0E0,0E0,0E0,0E0,0E0,0E0,0E0,0E0,0E0,0E0,0E0,0E0,0E0,0E0,0E0,0E0,0E0,0E0,0E0,0E0,0E0,0E0,0E0,0E0,0E0,0E0,0E0,0E0,0E0,0E0,0E0,0E0,0E0,0E0,0E0,0E0,0E0,0E0,0E0,0E0,0E0,0E0,0E0,0E0,0E0,0E0,0E0,0E0,0E0,0E0],"parents":[2147483647,0,0,1,1,2,2,3,3,4,4,5,5,6,6,7,7,8,8,9,9,10,10,11,11,12,12,13,13,14,14,15,15,16,16,17,17,18,18,19,19,20,20,21,21,22,22,23,23,24,24,25,25,26,26,27,27,28,28,29,29,30,30,31,31,32,32,33,33,34,34,35,35,36,36,37,37,38,38,39,39,40,40,41,41,42,42,43,43,44,44,45,45,46,46,47,47,48,48,49,49,50,50,51,51,52,52,53,53,54,54,55,55,56,56,57,57,58,58,59,59,60,60,61,61,62,62],"right_children":[2,4,6,8,10,12,14,16,18,20,22,24,26,28,30,32,34,36,38,40,42,44,46,48,50,52,54,56,58,60,62,64,66,68,70,72,74,76,78,80,82,84,86,88,90,92,94,96,98,100,102,104,106,108,110,112,114,116,118,120,122,124,126,-1,-1,-1,-1,-1,-1,-1,-1,-1,-1,-1,-1,-1,-1,-1,-1,-1,-1,-1,-1,-1,-1,-1,-1,-1,-1,-1,-1,-1,-1,-1,-1,-1,-1,-1,-1,-1,-1,-1,-1,-1,-1,-1,-1,-1,-1,-1,-1,-1,-1,-1,-1,-1,-1,-1,-1,-1,-1,-1,-1,-1,-1,-1,-1],"split_conditions":[4.6173E0,2.7813E0,6.2924E0,3.9149425E0,2.2105262E0,2.6877055E0,7.6659E0,2.8965516E0,2.2873304E0,2.5E1,5.2E1,2.2E1,5.3283E0,2.7E1,2.2E1,1.875E0,3.045238E0,2E1,2.0556E0,4.76E2,3.1875E0,5.1879897E0,9.701493E-1,7.72E2,1.0427808E0,1.68E2,8.917526E-1,3.0088692E0,2.2600896E0,9.281E0,3.54E2,1.767E3,5E1,1.493E3,1.7446E0,4E0,1.5076923E0,2.5636364E1,4.48366E0,3.0189E0,1.7E1,4.949367E0,1.0820895E0,3.2626262E0,3.6333E0,3.6719E0,6.65E2,4.1E1,2.048583E0,2.4542253E0,2.144781E0,1.5272727E0,3.6E1,2.9310346E0,3.7E1,9.656566E-1,7.0568E0,7.5177E0,1.1072088E0,9.683908E-1,8.5714287E-1,4.805646E0,3.1909723E0,-2.7378041E-2,3.596541E-2,6.9011166E-3,4.751133E-2,-2.6114741E-2,1.0820158E-2,-4.6942092E-2,-2.4264883E-2,1.0141893E-1,-3.901649E-2,-8.778419E-2,-1.2485456E-2,-4.9551036E-2,1.5806805E-1,-2.3833225E-2,-4.1764647E-2,7.189751E-2,-5.131763E-2,-5.9068855E-3,2.5249103E-2,3.1137308E-2,-4.383966E-2,4.6059728E-2,9.137209E-2,1.9166576E-3,-2.0269651E-2,-3.4191392E-2,-1.1389633E-2,-5.3593885E-2,-4.9870866E-3,2.8812568E-4,4.7701515E-2,-9.306745E-2,2.6085682E-3,7.388698E-2,2.4088508E-2,5.7311725E-2,2.7976964E-2,1.1201551E-1,6.9283776E-2,9.6525155E-2,-4.8829984E-2,-3.0051905E-3,2.2811605E-2,-9.065686E-2,-2.4610547E-2,1.987571E-2,6.3068405E-2,1.8845035E-2,6.6328615E-2,2.6840473E-2,5.3054374E-2,1.20526634E-1,4.6250187E-2,7.152212E-2,1.1096878E-1,2.2384308E-2,7.3629245E-2,2.0317083E-2,1.04603484E-1,-1.616596E-2,7.6427E-2,-2.0422697E-2,1.0975802E-1],"split_indices":[0,0,0,2,5,5,0,5,5,1,1,1,0,1,1,0,2,1,0,4,0,2,3,4,3,4,3,5,5,0,4,4,1,4,0,1,5,3,2,0,1,2,3,5,0,0,4,4,5,5,5,3,1,5,1,3,0,0,3,3,3,2,2,0,0,0,0,0,0,0,0,0,0,0,0,0,0,0,0,0,0,0,0,0,0,0,0,0,0,0,0,0,0,0,0,0,0,0,0,0,0,0,0,0,0,0,0,0,0,0,0,0,0,0,0,0,0,0,0,0,0,0,0,0,0,0,0],"split_type":[0,0,0,0,0,0,0,0,0,0,0,0,0,0,0,0,0,0,0,0,0,0,0,0,0,0,0,0,0,0,0,0,0,0,0,0,0,0,0,0,0,0,0,0,0,0,0,0,0,0,0,0,0,0,0,0,0,0,0,0,0,0,0,0,0,0,0,0,0,0,0,0,0,0,0,0,0,0,0,0,0,0,0,0,0,0,0,0,0,0,0,0,0,0,0,0,0,0,0,0,0,0,0,0,0,0,0,0,0,0,0,0,0,0,0,0,0,0,0,0,0,0,0,0,0,0,0],"sum_hessian":[1.6512E4,1.1967E4,4.545E3,5.087E3,6.88E3,3.024E3,1.521E3,1.491E3,3.596E3,1.121E3,5.759E3,1.102E3,1.922E3,8.36E2,6.85E2,6.09E2,8.82E2,6.72E2,2.924E3,4.38E2,6.83E2,5.482E3,2.77E2,3.45E2,7.57E2,1.045E3,8.77E2,5.17E2,3.19E2,2.57E2,4.28E2,2.52E2,3.57E2,1.93E2,6.89E2,2.5E2,4.22E2,1.138E3,1.786E3,4.5E1,3.93E2,2.05E2,4.78E2,2.528E3,2.954E3,3.2E1,2.45E2,9.4E1,2.51E2,4.58E2,2.99E2,1.6E1,1.029E3,1.6E1,8.61E2,2.5E2,2.67E2,5E1,2.69E2,1.63E2,9.4E1,3.6E1,3.92E2,2.18E2,3.4E1,3.05E2,5.2E1,7.7E1,1.16E2,1.72E2,5.17E2,2E0,2.48E2,1.4E1,4.08E2,1.137E3,1E0,5E2,1.286E3,7E0,3.8E1,1.92E2,2.01E2,1.69E2,3.6E1,3.17E2,1.61E2,1.698E3,8.3E2,1.163E3,1.791E3,1.7E1,1.5E1,4.8E1,1.97E2,4E0,9E1,4.3E1,2.08E2,2.23E2,2.35E2,8.1E1,2.18E2,1.4E1,2E0,8.5E2,1.79E2,6E0,1E1,8.03E2,5.8E1,3.8E1,2.12E2,1.86E2,8.1E1,4.6E1,4E0,2.45E2,2.4E1,2E1,1.43E2,4E0,9E1,3E0,3.3E1,1E0,3.91E2],"tree_param":{"num_deleted":"0","num_feature":"6","num_nodes":"127","size_leaf_vector":"1"}},{"base_weights":[7.9407584E-4,-1.5375464E-1,3.5033712E-1,-2.81549E-1,-5.155923E-2,2.0397931E-1,6.9071096E-1,-1.3011965E-1,-3.4428212E-1,1.6641915E-1,-1.4500192E-1,4.8154318E-1,1.1190291E-1,5.7732207E-1,9.2691684E-1,-3.435919E-2,-2.4980451E-1,-2.1180582E-1,-3.746453E-1,3.0768052E-1,-1.9733883E-2,-1.829645E-1,2.0528682E-2,2.2843507E-1,6.013664E-1,-4.653065E-2,1.7330159E-1,4.574886E-1,7.7555275E-1,9.716357E-1,7.1637666E-1,-1.320435E-1,1.2824503E-1,-3.104091E-1,-1.3203357E-1,-4.0281963E-1,-1.5577918E-1,-4.0527722E-1,-2.682854E-1,1.07396424E-1,4.6614414E-1,-1.2102234E-1,2.932549E-1,-5.4041628E-2,-2.2311962E-1,-1.1269518E-1,1.11004315E-1,1.5074167E-1,6.0890585E-1,1.7194234E-1,6.831448E-1,-1.1147844E-1,5.6108527E-2,2.4533129E-1,2.5651453E-2,6.619788E-1,4.0307617E-1,6.987718E-1,9.8892635E-1,1.9101644E-1,9.869621E-1,5.68059E-1,1.0245065E-1,-3.1074772E-2,2.3994155E-3,3.1045387E-2,-7.316768E-3,-5.8188485E-3,-3.322239E-2,1.4868405E-1,-1.603526E-2,7.8027807E-3,-4.679934E-2,-2.3968246E-2,4.6273298E-3,-4.8056122E-2,-3.6093835E-2,-2.7228275E-2,1.1769932E-1,-5.2015553E-3,2.116586E-2,8.657759E-3,6.1033785E-2,-2.4021624E-2,-7.037478E-4,1.2430858E-2,6.395032E-2,2.5292248E-3,-2.4618035E-2,-2.9281547E-2,-1.2825705E-2,9.521748E-3,-1.9115714E-2,2.5732776E-2,-3.7545774E-3,-4.6047256E-3,3.1737763E-2,9.06582E-2,2.7345547E-2,6.634573E-2,2.73993E-3,1.0126674E-1,5.902486E-2,-2.1389147E-2,-3.883835E-3,-8.784792E-3,1.84644E-2,1.7601868E-2,4.1005526E-2,-5.071308E-3,1.5598378E-2,3.5503697E-2,8.291668E-2,2.107811E-3,4.2100023E-2,1.1160596E-1,6.6006355E-2,1.4301491E-2,1.0136142E-1,4.3911245E-2,-4.5154635E-2,7.844325E-2,1.03197865E-1,-6.5243244E-2,6.187708E-2],"categories":[],"categories_nodes":[],"categories_segments":[],"categories_sizes":[],"default_left":[0,0,0,0,0,0,0,0,0,0,0,0,0,0,0,0,0,0,0,0,0,0,0,0,0,0,0,0,0,0,0,0,0,0,0,0,0,0,0,0,0,0,0,0,0,0,0,0,0,0,0,0,0,0,0,0,0,0,0,0,0,0,0,0,0,0,0,0,0,0,0,0,0,0,0,0,0,0,0,0,0,0,0,0,0,0,0,0,0,0,0,0,0,0,0,0,0,0,0,0,0,0,0,0,0,0,0,0,0,0,0,0,0,0,0,0,0,0,0,0,0,0,0,0,0],"id":10,"left_children":[1,3,5,7,9,11,13,15,17,19,21,23,25,27,29,31,33,35,37,39,41,43,45,47,49,51,53,55,57,59,61,63,65,67,69,71,73,75,77,79,81,83,85,87,89,91,93,95,97,99,101,103,105,107,109,111,113,115,117,119,121,123,-1,-1,-1,-1,-1,-1,-1,-1,-1,-1,-1,-1,-1,-1,-1,-1,-1,-1,-1,-1,-1,-1,-1,-1,-1,-1,-1,-1,-1,-1,-1,-1,-1,-1,-1,-1,-1,-1,-1,-1,-1,-1,-1,-1,-1,-1,-1,-1,-1,-1,-1,-1,-1,-1,-1,-1,-1,-1,-1,-1,-1,-1,-1],"loss_changes":[8.921097E2,1.4953549E2,2.520794E2,4.8289337E1,1.2964917E2,9.04693E1,4.022876E1,1.7091345E1,1.4389252E1,5.023187E1,2.7998848E1,2.6612122E1,2.5893238E1,2.4136261E1,3.9361877E0,1.3200553E1,4.6911507E0,7.1396027E0,9.420929E0,3.4417145E1,2.6189766E1,1.8749062E1,1.0041033E1,8.332832E0,2.0882858E1,4.965898E0,2.039201E1,6.909958E0,5.6492157E0,4.633026E0,3.5311203E0,1.4479556E1,1.14728565E1,2.3850975E0,1.064522E1,4.799988E0,8.860485E0,7.400482E0,4.116169E0,8.005536E0,3.3114197E1,8.47616E0,1.1736979E1,1.3145787E1,1.8230103E1,5.515762E0,1.0790897E1,7.8191366E0,4.5451603E0,6.873193E0,1.4769211E1,3.3840098E0,5.3637347E0,1.464492E1,6.2781544E0,6.5821E0,3.4967804E0,3.9152374E0,1.9433975E0,1.6330348E0,2.791748E0,4.3029785E0,0E0,0E0,0E0,0E0,0E0,0E0,0E0,0E0,0E0,0E0,0E0,0E0,0E0,0E0,0E0,0E0,0E0,0E0,0E0,0E0,0E0,0E0,0E0,0E0,0E0,0E0,0E0,0E0,0E0,0E0,0E0,0E0,0E0,0E0,0E0,0E0,0E0,0E0,0E0,0E0,0E0,0E0,0E0,0E0,0E0,0E0,0E0,0E0,0E0,0E0,0E0,0E0,0E0,0E0,0E0,0E0,0E0,0E0,0E0,0E0,0E0,0E0,0E0],"parents":[2147483647,0,0,1,1,2,2,3,3,4,4,5,5,6,6,7,7,8,8,9,9,10,10,11,11,12,12,13,13,14,14,15,15,16,16,17,17,18,18,19,19,20,20,21,21,22,22,23,23,24,24,25,25,26,26,27,27,28,28,29,29,30,30,31,31,32,32,33,33,34,34,35,35,36,36,37,37,38,38,39,39,40,40,41,41,42,42,43,43,44,44,45,45,46,46,47,47,48,48,49,49,50,50,51,51,52,52,53,53,54,54,55,55,56,56,57,57,58,58,59,59,60,60,61,61],"right_children":[2,4,6,8,10,12,14,16,18,20,22,24,26,28,30,32,34,36,38,40,42,44,46,48,50,52,54,56,58,60,62,64,66,68,70,72,74,76,78,80,82,84,86,88,90,92,94,96,98,100,102,104,106,108,110,112,114,116,118,120,122,124,-1,-1,-1,-1,-1,-1,-1,-1,-1,-1,-1,-1,-1,-1,-1,-1,-1,-1,-1,-1,-1,-1,-1,-1,-1,-1,-1,-1,-1,-1,-1,-1,-1,-1,-1,-1,-1,-1,-1,-1,-1,-1,-1,-1,-1,-1,-1,-1,-1,-1,-1,-1,-1,-1,-1,-1,-1,-1,-1,-1,-1,-1,-1],"split_conditions":[4.4211E0,2.7813E0,6.2924E0,3.9149425E0,2.448485E0,2.516854E0,8.1988E0,3.4077253E0,2.2873304E0,4.9276137E0,3.9E1,2.2E1,1.7E1,2.8E1,3.2240436E0,1.421E3,2.065E3,1.8235E0,4.1E1,2.7E1,4.0729E0,4.7034483E0,9.3E2,5.7214E0,9.7402596E-1,5.3681E0,3.1328905E0,2.6575E0,1.0643086E0,6.9E1,1.05144E1,1.962E0,3.4459016E0,4.1E2,1.0353E0,1.7270375E0,1.1334982E0,2.0556E0,8.986207E0,1.7E1,1.0212766E0,1.0667735E0,1.0950227E0,3.6142132E0,3.7831E0,2.625E0,3.089172E0,1.118E3,6.0531E0,5.15E2,2.048583E0,1.1E1,1.52E3,1.0526316E0,6.1884985E0,1.6E1,5.9530516E0,2.144781E0,1.68E2,4.7E1,9.7402596E-1,1.38E2,1.0245065E-1,-3.1074772E-2,2.3994155E-3,3.1045387E-2,-7.316768E-3,-5.8188485E-3,-3.322239E-2,1.4868405E-1,-1.603526E-2,7.8027807E-3,-4.679934E-2,-2.3968246E-2,4.6273298E-3,-4.8056122E-2,-3.6093835E-2,-2.7228275E-2,1.1769932E-1,-5.2015553E-3,2.116586E-2,8.657759E-3,6.1033785E-2,-2.4021624E-2,-7.037478E-4,1.2430858E-2,6.395032E-2,2.5292248E-3,-2.4618035E-2,-2.9281547E-2,-1.2825705E-2,9.521748E-3,-1.9115714E-2,2.5732776E-2,-3.7545774E-3,-4.6047256E-3,3.1737763E-2,9.06582E-2,2.7345547E-2,6.634573E-2,2.73993E-3,1.0126674E-1,5.902486E-2,-2.1389147E-2,-3.883835E-3,-8.784792E-3,1.84644E-2,1.7601868E-2,4.1005526E-2,-5.071308E-3,1.5598378E-2,3.5503697E-2,8.291668E-2,2.107811E-3,4.2100023E-2,1.1160596E-1,6.6006355E-2,1.4301491E-2,1.0136142E-1,4.3911245E-2,-4.5154635E-2,7.844325E-2,1.03197865E-1,-6.5243244E-2,6.187708E-2],"split_indices":[0,0,0,2,5,5,0,5,5,2,1,1,1,1,5,4,4,0,1,1,0,2,4,0,3,0,5,5,3,4,0,0,2,4,0,5,3,0,2,1,3,3,3,5,0,5,5,4,0,4,5,1,4,3,2,1,2,5,4,1,3,4,0,0,0,0,0,0,0,0,0,0,0,0,0,0,0,0,0,0,0,0,0,0,0,0,0,0,0,0,0,0,0,0,0,0,0,0,0,0,0,0,0,0,0,0,0,0,0,0,0,0,0,0,0,0,0,0,0,0,0,0,0,0,0],"split_type":[0,0,0,0,0,0,0,0,0,0,0,0,0,0,0,0,0,0,0,0,0,0,0,0,0,0,0,0,0,0,0,0,0,0,0,0,0,0,0,0,0,0,0,0,0,0,0,0,0,0,0,0,0,0,0,0,0,0,0,0,0,0,0,0,0,0,0,0,0,0,0,0,0,0,0,0,0,0,0,0,0,0,0,0,0,0,0,0,0,0,0,0,0,0,0,0,0,0,0,0,0,0,0,0,0,0,0,0,0,0,0,0,0,0,0,0,0,0,0,0,0,0,0,0,0],"sum_hessian":[1.6512E4,1.145E4,5.062E3,5.087E3,6.363E3,3.541E3,1.521E3,1.491E3,3.596E3,1.909E3,4.454E3,8.81E2,2.66E3,1.03E3,4.91E2,8.29E2,6.62E2,6.72E2,2.924E3,1.085E3,8.24E2,3.623E3,8.31E2,2.84E2,5.97E2,7.43E2,1.917E3,6.44E2,3.86E2,4.02E2,8.9E1,5.18E2,3.11E2,4.36E2,2.26E2,1.51E2,5.21E2,2.268E3,6.56E2,4.8E2,6.05E2,6.23E2,2.01E2,8.61E2,2.762E3,3.36E2,4.95E2,2.37E2,4.7E1,9.6E1,5.01E2,4.55E2,2.88E2,1.288E3,6.29E2,1.33E2,5.11E2,2.87E2,9.9E1,8E0,3.94E2,6.2E1,2.7E1,2.41E2,2.77E2,1.63E2,1.48E2,3.5E1,4.01E2,3E0,2.23E2,1.8E1,1.33E2,3.68E2,1.53E2,8.37E2,1.431E3,6.55E2,1E0,1.9E2,2.9E2,1.67E2,4.38E2,3.04E2,3.19E2,1.36E2,6.5E1,6.1E2,2.51E2,1.591E3,1.171E3,9.2E1,2.44E2,2.49E2,2.46E2,1.09E2,1.28E2,2.4E1,2.3E1,2.1E1,7.5E1,1.08E2,3.93E2,1.88E2,2.67E2,1.36E2,1.52E2,9.08E2,3.8E2,3.97E2,2.32E2,4.8E1,8.5E1,2.3E1,4.88E2,2.2E1,2.65E2,3E0,9.6E1,6E0,2E0,7.5E1,3.19E2,2E0,6E1],"tree_param":{"num_deleted":"0","num_feature":"6","num_nodes":"125","size_leaf_vector":"1"}},{"base_weights":[7.925156E-4,-9.832504E-2,4.4728377E-1,-2.0466544E-1,4.8735283E-2,3.3344474E-1,7.52075E-1,5.479325E-2,-2.3788463E-1,2.3230968E-1,-6.8171084E-2,5.052631E-1,2.1325983E-1,6.5271395E-1,8.727867E-1,-8.325938E-2,2.0365939E-1,-2.55569E-1,6.530358E-2,4.9200177E-1,1.5575768E-1,-2.1308506E-1,-3.1288777E-2,2.1582213E-1,5.7492656E-1,1.22035295E-1,3.2941192E-1,5.4885644E-1,8.211558E-1,4.7997987E-1,8.929698E-1,8.551435E-1,-1.0586241E-1,-2.6736867E-1,2.8698313E-1,-1.8205272E-1,-3.15872E-1,-3.923243E-2,4.1224015E-1,9.525782E-2,6.3768345E-1,-2.4672034E-1,1.9872338E-1,-3.1195053E-1,-1.441275E-1,-8.665271E-2,5.889156E-2,2.873913E-2,3.7503248E-1,8.638678E-1,5.108303E-1,6.779882E-2,3.008058E-1,2.7437335E-1,5.254096E-1,8.6165905E-1,4.8897287E-1,-6.2435556E-2,8.4282327E-1,-1.0464849E-1,6.326775E-1,-2.2495419E-2,8.9686215E-1,-1.1343338E-2,2.0401226E-1,-2.2976281E-2,4.6495255E-3,-7.9171054E-2,-2.1047836E-2,1.4648198E-2,4.873916E-2,-2.8347943E-2,-9.345363E-3,-4.1309755E-2,-2.6664097E-2,1.37735475E-2,-2.0779239E-2,4.771216E-2,-4.159599E-2,-3.9251905E-2,1.5000269E-2,-4.9122706E-2,6.6743605E-2,-1.1852397E-2,-4.6908863E-2,-1.1498176E-3,2.7924007E-2,1.3930765E-1,-3.2274533E-2,-1.5949545E-2,4.3619182E-2,-1.6149638E-2,-2.4203665E-3,1.1818704E-2,-5.541583E-3,-4.0325776E-2,8.75231E-3,4.437062E-2,-5.5168122E-2,9.004865E-2,-5.1474262E-2,-3.6365554E-2,5.2336782E-2,-3.0526156E-2,8.593775E-3,2.7530542E-2,1.2774943E-1,1.4608349E-2,3.348364E-2,3.4838308E-2,7.52645E-2,6.386896E-3,9.623022E-2,4.0171992E-2,6.264643E-2,-5.6480806E-2,2.043596E-2,7.1740985E-2,9.8189965E-2,2.3899246E-2,-7.396062E-2,1.4584208E-2,9.101945E-2,7.8177616E-2,9.4740555E-2],"categories":[],"categories_nodes":[],"categories_segments":[],"categories_sizes":[],"default_left":[0,0,0,0,0,0,0,0,0,0,0,0,0,0,0,0,0,0,0,0,0,0,0,0,0,0,0,0,0,0,0,0,0,0,0,0,0,0,0,0,0,0,0,0,0,0,0,0,0,0,0,0,0,0,0,0,0,0,0,0,0,0,0,0,0,0,0,0,0,0,0,0,0,0,0,0,0,0,0,0,0,0,0,0,0,0,0,0,0,0,0,0,0,0,0,0,0,0,0,0,0,0,0,0,0,0,0,0,0,0,0,0,0,0,0,0,0,0,0,0,0,0,0,0,0],"id":11,"left_children":[1,3,5,7,9,11,13,15,17,19,21,23,25,27,29,31,33,35,37,39,41,43,45,47,49,51,53,55,57,59,61,63,65,67,69,71,73,75,77,79,81,83,85,87,89,91,93,95,97,99,101,103,105,107,109,111,113,115,117,119,121,-1,123,-1,-1,-1,-1,-1,-1,-1,-1,-1,-1,-1,-1,-1,-1,-1,-1,-1,-1,-1,-1,-1,-1,-1,-1,-1,-1,-1,-1,-1,-1,-1,-1,-1,-1,-1,-1,-1,-1,-1,-1,-1,-1,-1,-1,-1,-1,-1,-1,-1,-1,-1,-1,-1,-1,-1,-1,-1,-1,-1,-1,-1,-1],"loss_changes":[7.308288E2,2.1134802E2,1.0384064E2,6.761188E1,1.2174272E2,4.503308E1,9.205475E0,1.832822E1,3.72966E1,4.3798416E1,1.851828E1,1.8002869E1,1.3607342E1,7.4390717E0,2.465088E0,9.911104E0,1.6914045E1,2.906897E1,1.3942841E1,2.8954002E1,2.955046E1,4.747755E0,1.3805031E1,5.2314787E0,1.2967239E1,6.989728E0,5.961525E0,4.8610153E0,3.307312E0,1.8516359E0,1.7073364E0,1.2856593E1,8.562044E0,1.7723107E0,1.0206133E1,2.659996E1,1.7159576E1,8.858212E0,4.9808607E0,3.6905246E0,1.2654663E1,4.6480246E0,2.6103642E1,5.7503624E0,3.7795897E0,8.002507E0,7.1369123E0,2.1176426E0,6.2906694E0,7.026291E0,6.713852E0,3.7886384E0,3.83249E0,3.3951035E0,4.6856728E0,3.4713898E0,2.6155052E0,7.855767E-1,2.1909485E0,1.2677475E0,2.0289378E0,0E0,1.2661438E0,0E0,0E0,0E0,0E0,0E0,0E0,0E0,0E0,0E0,0E0,0E0,0E0,0E0,0E0,0E0,0E0,0E0,0E0,0E0,0E0,0E0,0E0,0E0,0E0,0E0,0E0,0E0,0E0,0E0,0E0,0E0,0E0,0E0,0E0,0E0,0E0,0E0,0E0,0E0,0E0,0E0,0E0,0E0,0E0,0E0,0E0,0E0,0E0,0E0,0E0,0E0,0E0,0E0,0E0,0E0,0E0,0E0,0E0,0E0,0E0,0E0,0E0],"parents":[2147483647,0,0,1,1,2,2,3,3,4,4,5,5,6,6,7,7,8,8,9,9,10,10,11,11,12,12,13,13,14,14,15,15,16,16,17,17,18,18,19,19,20,20,21,21,22,22,23,23,24,24,25,25,26,26,27,27,28,28,29,29,30,30,31,31,32,32,33,33,34,34,35,35,36,36,37,37,38,38,39,39,40,40,41,41,42,42,43,43,44,44,45,45,46,46,47,47,48,48,49,49,50,50,51,51,52,52,53,53,54,54,55,55,56,56,57,57,58,58,59,59,60,60,62,62],"right_children":[2,4,6,8,10,12,14,16,18,20,22,24,26,28,30,32,34,36,38,40,42,44,46,48,50,52,54,56,58,60,62,64,66,68,70,72,74,76,78,80,82,84,86,88,90,92,94,96,98,100,102,104,106,108,110,112,114,116,118,120,122,-1,124,-1,-1,-1,-1,-1,-1,-1,-1,-1,-1,-1,-1,-1,-1,-1,-1,-1,-1,-1,-1,-1,-1,-1,-1,-1,-1,-1,-1,-1,-1,-1,-1,-1,-1,-1,-1,-1,-1,-1,-1,-1,-1,-1,-1,-1,-1,-1,-1,-1,-1,-1,-1,-1,-1,-1,-1,-1,-1,-1,-1,-1,-1],"split_conditions":[5.2713E0,3.4375E0,7.3518E0,2.0333333E0,2.642857E0,2.7457628E0,8.7471E0,2.8E1,5.2E1,2.048583E0,1.6E1,1.7E1,6.091E0,2.9E1,1.38E2,2.4880762E0,1.7235E0,4.5315986E0,1.369E3,1.8E1,4.76E2,4.125E0,4.4211E0,1.0613718E0,2.2105262E0,1.0636364E0,2.7E1,2.5641026E0,1.68E2,2.1189592E0,3.1909723E0,1.0595238E0,2.5667E0,8.7945205E-1,1.0772059E0,2.2328E0,2.3687E0,2.642857E0,5.345133E0,1.0033557E0,1.38E2,2.4422443E0,2.1E1,1.03E2,4.322946E0,1.0263158E0,3.1735792E0,9.4008267E-1,9.7757845E0,1.7215909E0,1.38E2,9.0967745E-1,4.7E1,1.14E3,6.8299713E0,2.048583E0,1.0401607E0,7.5177E0,1.038961E0,5.4341087E0,1.14537E1,-2.2495419E-2,2.1E1,-1.1343338E-2,2.0401226E-1,-2.2976281E-2,4.6495255E-3,-7.9171054E-2,-2.1047836E-2,1.4648198E-2,4.873916E-2,-2.8347943E-2,-9.345363E-3,-4.1309755E-2,-2.6664097E-2,1.37735475E-2,-2.0779239E-2,4.771216E-2,-4.159599E-2,-3.9251905E-2,1.5000269E-2,-4.9122706E-2,6.6743605E-2,-1.1852397E-2,-4.6908863E-2,-1.1498176E-3,2.7924007E-2,1.3930765E-1,-3.2274533E-2,-1.5949545E-2,4.3619182E-2,-1.6149638E-2,-2.4203665E-3,1.1818704E-2,-5.541583E-3,-4.0325776E-2,8.75231E-3,4.437062E-2,-5.5168122E-2,9.004865E-2,-5.1474262E-2,-3.6365554E-2,5.2336782E-2,-3.0526156E-2,8.593775E-3,2.7530542E-2,1.2774943E-1,1.4608349E-2,3.348364E-2,3.4838308E-2,7.52645E-2,6.386896E-3,9.623022E-2,4.0171992E-2,6.264643E-2,-5.6480806E-2,2.043596E-2,7.1740985E-2,9.8189965E-2,2.3899246E-2,-7.396062E-2,1.4584208E-2,9.101945E-2,7.8177616E-2,9.4740555E-2],"split_indices":[0,0,0,5,5,5,0,1,1,5,1,1,0,1,4,2,0,2,4,1,4,0,0,3,5,3,1,5,4,5,2,3,0,3,3,0,0,5,2,3,4,5,1,4,5,3,5,3,2,3,4,3,1,4,2,5,3,0,3,2,0,0,1,0,0,0,0,0,0,0,0,0,0,0,0,0,0,0,0,0,0,0,0,0,0,0,0,0,0,0,0,0,0,0,0,0,0,0,0,0,0,0,0,0,0,0,0,0,0,0,0,0,0,0,0,0,0,0,0,0,0,0,0,0,0],"split_type":[0,0,0,0,0,0,0,0,0,0,0,0,0,0,0,0,0,0,0,0,0,0,0,0,0,0,0,0,0,0,0,0,0,0,0,0,0,0,0,0,0,0,0,0,0,0,0,0,0,0,0,0,0,0,0,0,0,0,0,0,0,0,0,0,0,0,0,0,0,0,0,0,0,0,0,0,0,0,0,0,0,0,0,0,0,0,0,0,0,0,0,0,0,0,0,0,0,0,0,0,0,0,0,0,0,0,0,0,0,0,0,0,0,0,0,0,0,0,0,0,0,0,0,0,0],"sum_hessian":[1.6512E4,1.3513E4,2.999E3,7.842E3,5.671E3,2.185E3,8.14E2,8.9E2,6.952E3,2.206E3,3.465E3,8.98E2,1.287E3,4.5E2,3.64E2,4.62E2,4.28E2,6.569E3,3.83E2,5.01E2,1.705E3,7.02E2,2.763E3,1.75E2,7.23E2,7.22E2,5.65E2,2.81E2,1.69E2,1.9E1,3.45E2,1E1,4.52E2,6.4E1,3.64E2,2.962E3,3.607E3,2.95E2,8.8E1,1.35E2,3.66E2,1.64E2,1.541E3,2.87E2,4.15E2,1.712E3,1.051E3,8.1E1,9.4E1,1.29E2,5.94E2,5.55E2,1.67E2,4.43E2,1.22E2,4.3E1,2.38E2,4E0,1.65E2,4E0,1.5E1,1E0,3.44E2,6E0,4E0,2.49E2,2.03E2,5E0,5.9E1,2.15E2,1.49E2,1.38E3,1.582E3,1.21E3,2.397E3,1.44E2,1.51E2,8.2E1,6E0,1.3E1,1.22E2,9E0,3.57E2,1.05E2,5.9E1,4.27E2,1.114E3,1E0,2.86E2,4.05E2,1E1,7.78E2,9.34E2,6.92E2,3.59E2,9E0,7.2E1,8.8E1,6E0,1.26E2,3E0,8E0,5.86E2,2.5E1,5.3E2,1.64E2,3E0,1.43E2,3E2,7E1,5.2E1,5E0,3.8E1,1.48E2,9E1,1E0,3E0,9E1,7.5E1,3E0,1E0,6E0,9E0,1.1E2,2.34E2],"tree_param":{"num_deleted":"0","num_feature":"6","num_nodes":"125","size_leaf_vector":"1"}},{"base_weights":[7.716353E-4,-7.7989675E-2,4.5903075E-1,-1.7115563E-1,7.4690804E-2,3.6009222E-1,7.0888084E-1,7.0848115E-2,-2.0199583E-1,3.6569154E-1,1.6186E-2,4.6263358E-1,1.8832181E-1,5.830275E-1,7.829165E-1,-6.151588E-2,2.1801902E-1,-2.1834226E-1,7.387765E-2,6.895142E-2,4.732452E-1,-5.671417E-3,3.928018E-1,2.7577057E-1,5.525023E-1,1.4555667E-1,4.4334757E-1,4.8587093E-1,7.446133E-1,4.9119177E-1,8.083895E-1,5.4564346E-2,-2.0461702E-1,-2.4217364E-1,2.913388E-1,-3.102935E-1,-1.7593302E-1,2.7245477E-1,-9.3171835E-2,-5.1987577E-2,1.8732159E-1,8.7528396E-1,3.8616621E-1,6.340885E-2,-8.482887E-2,-2.582538E-1,4.6830246E-1,-1.08928144E-1,3.3054766E-1,4.5122284E-1,7.692685E-1,-5.8579654E-2,1.7442195E-1,3.494973E-1,7.303418E-1,1.20721795E-1,5.445781E-1,8.729968E-2,7.725469E-1,8.5062124E-2,6.5974426E-1,1.5762882E-1,8.146759E-1,-3.5398975E-3,4.4672694E-2,-3.2449625E-2,-3.7867636E-3,-3.8118877E-2,-6.7283064E-3,1.2504527E-2,4.5949217E-2,5.431656E-3,-3.4184545E-2,-1.0286919E-2,-2.5977477E-2,1.2082486E-2,6.302067E-2,-1.768966E-2,2.0083299E-2,5.985595E-2,-9.799105E-3,6.6198856E-3,4.2204402E-2,3.7485342E-2,1.0156877E-1,1.746804E-2,5.2618545E-2,-4.4544027E-3,1.1531537E-2,-2.6034227E-2,-6.145919E-3,-3.8738847E-2,8.6090825E-2,5.666564E-2,2.1576473E-2,2.2294333E-2,-1.9808888E-2,3.5768017E-2,-4.41947E-2,3.444159E-2,5.4774668E-2,6.7060456E-2,9.88025E-2,-3.1531084E-2,1.7170871E-3,7.0184045E-3,2.1633415E-2,4.2063866E-2,1.5669506E-2,1.0124514E-1,3.5619106E-2,-3.5001457E-2,3.351435E-2,4.0975068E-2,6.717353E-2,-6.546092E-3,1.4185506E-2,2.5730047E-2,7.932789E-2,7.219634E-2,-3.2363396E-2,8.5953094E-2,1.0278289E-2,-2.137065E-2,3.0388927E-2,7.019382E-2,8.555078E-2],"categories":[],"categories_nodes":[],"categories_segments":[],"categories_sizes":[],"default_left":[0,0,0,0,0,0,0,0,0,0,0,0,0,0,0,0,0,0,0,0,0,0,0,0,0,0,0,0,0,0,0,0,0,0,0,0,0,0,0,0,0,0,0,0,0,0,0,0,0,0,0,0,0,0,0,0,0,0,0,0,0,0,0,0,0,0,0,0,0,0,0,0,0,0,0,0,0,0,0,0,0,0,0,0,0,0,0,0,0,0,0,0,0,0,0,0,0,0,0,0,0,0,0,0,0,0,0,0,0,0,0,0,0,0,0,0,0,0,0,0,0,0,0,0,0,0,0],"id":12,"left_children":[1,3,5,7,9,11,13,15,17,19,21,23,25,27,29,31,33,35,37,39,41,43,45,47,49,51,53,55,57,59,61,63,65,67,69,71,73,75,77,79,81,83,85,87,89,91,93,95,97,99,101,103,105,107,109,111,113,115,117,119,121,123,125,-1,-1,-1,-1,-1,-1,-1,-1,-1,-1,-1,-1,-1,-1,-1,-1,-1,-1,-1,-1,-1,-1,-1,-1,-1,-1,-1,-1,-1,-1,-1,-1,-1,-1,-1,-1,-1,-1,-1,-1,-1,-1,-1,-1,-1,-1,-1,-1,-1,-1,-1,-1,-1,-1,-1,-1,-1,-1,-1,-1,-1,-1,-1,-1],"loss_changes":[5.9604095E2,2.0046619E2,5.961606E1,6.533438E1,9.0924286E1,3.050766E1,5.9354553E0,1.929874E1,3.5023743E1,2.849981E1,3.661749E1,1.8101776E1,7.0354156E0,3.688591E0,2.790863E0,8.682219E0,1.5895185E1,2.8525452E1,1.4455294E1,3.4311597E0,2.262799E1,2.2999233E1,1.2114792E1,7.5168056E0,1.5745132E1,3.3040972E0,2.2496548E0,3.4499054E0,1.676857E0,2.4766836E0,1.4793396E0,1.0211805E1,4.6653223E0,1.5546603E0,1.1267487E1,2.6616165E1,3.071254E1,1.0718788E1,5.869397E0,3.6200175E0,3.412118E0,7.769699E0,1.5928223E1,1.2590503E1,8.023315E0,4.091094E0,5.31728E0,1.3757083E0,6.676552E0,4.986679E0,4.3447723E0,1.3667408E0,2.1255484E0,9.2165565E-1,1.9615078E0,2.5397716E0,2.1421013E0,5.0955523E-2,7.679634E-1,3.3572404E0,2.8047647E0,3.3650148E-1,1.190155E0,0E0,0E0,0E0,0E0,0E0,0E0,0E0,0E0,0E0,0E0,0E0,0E0,0E0,0E0,0E0,0E0,0E0,0E0,0E0,0E0,0E0,0E0,0E0,0E0,0E0,0E0,0E0,0E0,0E0,0E0,0E0,0E0,0E0,0E0,0E0,0E0,0E0,0E0,0E0,0E0,0E0,0E0,0E0,0E0,0E0,0E0,0E0,0E0,0E0,0E0,0E0,0E0,0E0,0E0,0E0,0E0,0E0,0E0,0E0,0E0,0E0,0E0,0E0,0E0],"parents":[2147483647,0,0,1,1,2,2,3,3,4,4,5,5,6,6,7,7,8,8,9,9,10,10,11,11,12,12,13,13,14,14,15,15,16,16,17,17,18,18,19,19,20,20,21,21,22,22,23,23,24,24,25,25,26,26,27,27,28,28,29,29,30,30,31,31,32,32,33,33,34,34,35,35,36,36,37,37,38,38,39,39,40,40,41,41,42,42,43,43,44,44,45,45,46,46,47,47,48,48,49,49,50,50,51,51,52,52,53,53,54,54,55,55,56,56,57,57,58,58,59,59,60,60,61,61,62,62],"right_children":[2,4,6,8,10,12,14,16,18,20,22,24,26,28,30,32,34,36,38,40,42,44,46,48,50,52,54,56,58,60,62,64,66,68,70,72,74,76,78,80,82,84,86,88,90,92,94,96,98,100,102,104,106,108,110,112,114,116,118,120,122,124,126,-1,-1,-1,-1,-1,-1,-1,-1,-1,-1,-1,-1,-1,-1,-1,-1,-1,-1,-1,-1,-1,-1,-1,-1,-1,-1,-1,-1,-1,-1,-1,-1,-1,-1,-1,-1,-1,-1,-1,-1,-1,-1,-1,-1,-1,-1,-1,-1,-1,-1,-1,-1,-1,-1,-1,-1,-1,-1,-1,-1,-1,-1,-1,-1],"split_conditions":[5.5942E0,3.6591E0,7.6659E0,2.0333333E0,2.3019416E0,3.0088692E0,2.2E1,2.8E1,5.2E1,1.8E1,4.8E1,2.2E1,7.0568E0,9.281E0,3.54E2,4.4259543E0,1.7235E0,2.2206E0,2.5770235E0,1.118E3,1.8161291E0,2.9758065E0,5.05E2,9.656566E-1,1.0441177E0,9.54955E-1,1.0643086E0,9.728507E-1,8.5714287E-1,3E1,9.166667E-1,1.1392405E0,1.1334982E0,1.4189E0,1.0667735E0,3.045238E0,4.974293E0,1.186E3,1.369E3,3.4459016E0,4.6173E0,6.35E2,4.1364E0,2.1E1,1.1E1,3.5991902E0,2.8786764E0,3.96E2,1.5272727E0,3.4E1,1.1072088E0,1.6E1,1.6E1,7.5177E0,1.100346E0,8.46E2,1.5E1,5E0,4E0,2.7E1,5E1,3.1909723E0,8.1988E0,-3.5398975E-3,4.4672694E-2,-3.2449625E-2,-3.7867636E-3,-3.8118877E-2,-6.7283064E-3,1.2504527E-2,4.5949217E-2,5.431656E-3,-3.4184545E-2,-1.0286919E-2,-2.5977477E-2,1.2082486E-2,6.302067E-2,-1.768966E-2,2.0083299E-2,5.985595E-2,-9.799105E-3,6.6198856E-3,4.2204402E-2,3.7485342E-2,1.0156877E-1,1.746804E-2,5.2618545E-2,-4.4544027E-3,1.1531537E-2,-2.6034227E-2,-6.145919E-3,-3.8738847E-2,8.6090825E-2,5.666564E-2,2.1576473E-2,2.2294333E-2,-1.9808888E-2,3.5768017E-2,-4.41947E-2,3.444159E-2,5.4774668E-2,6.7060456E-2,9.88025E-2,-3.1531084E-2,1.7170871E-3,7.0184045E-3,2.1633415E-2,4.2063866E-2,1.5669506E-2,1.0124514E-1,3.5619106E-2,-3.5001457E-2,3.351435E-2,4.0975068E-2,6.717353E-2,-6.546092E-3,1.4185506E-2,2.5730047E-2,7.932789E-2,7.219634E-2,-3.2363396E-2,8.5953094E-2,1.0278289E-2,-2.137065E-2,3.0388927E-2,7.019382E-2,8.555078E-2],"split_indices":[0,0,0,5,5,5,1,1,1,1,1,1,0,0,4,2,0,0,5,4,5,5,4,3,3,3,3,3,3,1,3,3,3,0,3,2,2,4,4,2,0,4,0,1,1,5,5,4,3,1,3,1,1,0,3,4,1,1,1,1,1,2,0,0,0,0,0,0,0,0,0,0,0,0,0,0,0,0,0,0,0,0,0,0,0,0,0,0,0,0,0,0,0,0,0,0,0,0,0,0,0,0,0,0,0,0,0,0,0,0,0,0,0,0,0,0,0,0,0,0,0,0,0,0,0,0,0],"split_type":[0,0,0,0,0,0,0,0,0,0,0,0,0,0,0,0,0,0,0,0,0,0,0,0,0,0,0,0,0,0,0,0,0,0,0,0,0,0,0,0,0,0,0,0,0,0,0,0,0,0,0,0,0,0,0,0,0,0,0,0,0,0,0,0,0,0,0,0,0,0,0,0,0,0,0,0,0,0,0,0,0,0,0,0,0,0,0,0,0,0,0,0,0,0,0,0,0,0,0,0,0,0,0,0,0,0,0,0,0,0,0,0,0,0,0,0,0,0,0,0,0,0,0,0,0,0,0],"sum_hessian":[1.6512E4,1.4091E4,2.421E3,8.751E3,5.34E3,1.736E3,6.85E2,9.89E2,7.762E3,8.93E2,4.447E3,1.086E3,6.5E2,2.57E2,4.28E2,5.21E2,4.68E2,7.328E3,4.34E2,2.38E2,6.55E2,4.204E3,2.43E2,3.54E2,7.32E2,5.58E2,9.2E1,1.63E2,9.4E1,3.6E1,3.92E2,2.88E2,2.33E2,6.4E1,4.04E2,2.311E3,5.017E3,1.98E2,2.36E2,1.18E2,1.2E2,1.15E2,5.4E2,2.245E3,1.959E3,2.5E1,2.18E2,4.4E1,3.1E2,5.01E2,2.31E2,6.9E1,4.89E2,7.1E1,2.1E1,2.3E1,1.4E2,4E0,9E1,1.1E1,2.5E1,4E0,3.88E2,2.35E2,5.3E1,1.35E2,9.8E1,3.5E1,2.9E1,2.04E2,2E2,1.84E2,2.127E3,2.682E3,2.335E3,1.4E2,5.8E1,1.84E2,5.2E1,7E0,1.11E2,8E1,4E1,2.6E1,8.9E1,2.16E2,3.24E2,7.29E2,1.516E3,2.29E2,1.73E3,2.3E1,2E0,1.56E2,6.2E1,9E0,3.5E1,3E2,1E1,2.4E2,2.61E2,1.62E2,6.9E1,1.5E1,5.4E1,1.41E2,3.48E2,5.1E1,2E1,1.1E1,1E1,7E0,1.6E1,7E1,7E1,1E0,3E0,4E0,8.6E1,4E0,7E0,1.8E1,7E0,1E0,3E0,1.08E2,2.8E2],"tree_param":{"num_deleted":"0","num_feature":"6","num_nodes":"127","size_leaf_vector":"1"}},{"base_weights":[7.7939E-4,-1.1394169E-1,2.602442E-1,2.1697612E-2,-1.6989328E-1,1.5562642E-1,5.19061E-1,-8.948985E-2,1.7157088E-1,-2.4271299E-1,-1.0571644E-1,3.6550334E-1,8.622915E-2,3.8181177E-1,6.1773413E-1,2.9382769E-2,-1.7344466E-1,3.0346012E-1,1.6062213E-2,-9.85338E-2,-2.807408E-1,-1.3723755E-1,3.1109907E-2,1.7486107E-1,4.5505914E-1,5.986169E-2,3.5148904E-1,2.8427184E-1,5.726707E-1,5.464485E-1,7.349696E-1,-1.20569535E-1,1.4318897E-1,-2.666497E-1,-1.1569486E-1,1.9359306E-2,3.996065E-1,-1.4586249E-1,1.4511433E-1,-2.811618E-1,-4.141297E-2,5.751697E-1,-2.8350487E-1,-2.379378E-2,-1.723301E-1,-6.845459E-2,1.1966824E-1,-1.6594023E-1,2.4201295E-1,3.0581033E-1,6.400786E-1,3.0152155E-3,1.4082865E-1,8.074491E-3,4.6529454E-1,2.0400482E-1,4.7681716E-1,4.648661E-1,7.0645374E-1,6.0212445E-1,2.9487577E-1,4.5427805E-1,7.6059276E-1,2.1797556E-2,-2.078547E-2,4.7248206E-3,4.77089E-2,9.0122126E-2,-2.7696548E-2,-6.3961744E-2,-9.199221E-3,1.745504E-1,-1.6516019E-3,9.970857E-3,5.059239E-2,-1.6030157E-2,1.2937227E-1,-5.4549607E-3,3.6947303E-2,-3.190285E-2,5.4763164E-3,6.1561514E-2,-6.1421613E-3,9.065888E-2,-5.0033785E-2,-3.0131383E-2,-1.7569534E-2,1.8795018E-1,-3.0669344E-3,-2.6908442E-2,-1.3725142E-2,7.726966E-3,-1.2864964E-2,2.5147274E-2,-1.0859673E-3,-3.6261228E-3,-7.2385356E-2,6.652428E-2,1.7402923E-2,-1.09514985E-2,3.601677E-2,2.5454724E-2,7.348443E-2,-6.515786E-3,6.8967193E-3,1.0012769E-3,1.8161144E-2,-7.143835E-2,7.0216134E-3,4.852826E-2,-5.5548847E-2,1.0766774E-2,2.7080743E-2,2.8587302E-2,6.1582126E-2,4.1512486E-2,8.011678E-2,8.169194E-2,5.7783425E-2,5.7027537E-2,8.927234E-2,2.1694278E-2,7.469777E-2,6.8764925E-2,9.884293E-4,-2.0302117E-2,7.6464355E-2],"categories":[],"categories_nodes":[],"categories_segments":[],"categories_sizes":[],"default_left":[0,0,0,0,0,0,0,0,0,0,0,0,0,0,0,0,0,0,0,0,0,0,0,0,0,0,0,0,0,0,0,0,0,0,0,0,0,0,0,0,0,0,0,0,0,0,0,0,0,0,0,0,0,0,0,0,0,0,0,0,0,0,0,0,0,0,0,0,0,0,0,0,0,0,0,0,0,0,0,0,0,0,0,0,0,0,0,0,0,0,0,0,0,0,0,0,0,0,0,0,0,0,0,0,0,0,0,0,0,0,0,0,0,0,0,0,0,0,0,0,0,0,0,0,0,0,0],"id":13,"left_children":[1,3,5,7,9,11,13,15,17,19,21,23,25,27,29,31,33,35,37,39,41,43,45,47,49,51,53,55,57,59,61,63,65,67,69,71,73,75,77,79,81,83,85,87,89,91,93,95,97,99,101,103,105,107,109,111,113,115,117,119,121,123,125,-1,-1,-1,-1,-1,-1,-1,-1,-1,-1,-1,-1,-1,-1,-1,-1,-1,-1,-1,-1,-1,-1,-1,-1,-1,-1,-1,-1,-1,-1,-1,-1,-1,-1,-1,-1,-1,-1,-1,-1,-1,-1,-1,-1,-1,-1,-1,-1,-1,-1,-1,-1,-1,-1,-1,-1,-1,-1,-1,-1,-1,-1,-1,-1],"loss_changes":[4.9155698E2,8.690802E1,1.3700925E2,5.575653E1,3.7861084E1,5.2504013E1,1.9496033E1,1.9176537E1,2.922176E1,2.0790604E1,1.859726E1,1.5217949E1,1.894731E1,1.1230423E1,6.6686096E0,1.3601403E1,6.0299263E0,2.105233E1,1.3708524E1,8.2712555E0,7.2698975E0,1.3945427E1,7.1325426E0,6.6311665E0,1.662114E1,1.1359005E1,9.571449E0,6.1929283E0,2.6426163E0,7.245926E0,1.9344025E0,1.0210493E1,1.4489143E1,5.430029E0,8.596753E0,1.2166324E1,1.8314949E1,6.2561927E0,1.637082E1,2.4216204E0,8.004436E0,4.018038E0,5.6973724E0,1.0906131E1,9.045448E0,3.352026E0,7.366115E0,3.4465346E0,6.8184576E0,7.6926994E0,9.713966E0,6.5284066E0,5.429249E0,2.8336346E0,4.0238037E0,1.8307228E0,2.9824524E0,1.6245975E0,8.066788E-1,3.4984283E0,3.2908468E0,3.0007558E0,1.2833252E0,0E0,0E0,0E0,0E0,0E0,0E0,0E0,0E0,0E0,0E0,0E0,0E0,0E0,0E0,0E0,0E0,0E0,0E0,0E0,0E0,0E0,0E0,0E0,0E0,0E0,0E0,0E0,0E0,0E0,0E0,0E0,0E0,0E0,0E0,0E0,0E0,0E0,0E0,0E0,0E0,0E0,0E0,0E0,0E0,0E0,0E0,0E0,0E0,0E0,0E0,0E0,0E0,0E0,0E0,0E0,0E0,0E0,0E0,0E0,0E0,0E0,0E0,0E0,0E0],"parents":[2147483647,0,0,1,1,2,2,3,3,4,4,5,5,6,6,7,7,8,8,9,9,10,10,11,11,12,12,13,13,14,14,15,15,16,16,17,17,18,18,19,19,20,20,21,21,22,22,23,23,24,24,25,25,26,26,27,27,28,28,29,29,30,30,31,31,32,32,33,33,34,34,35,35,36,36,37,37,38,38,39,39,40,40,41,41,42,42,43,43,44,44,45,45,46,46,47,47,48,48,49,49,50,50,51,51,52,52,53,53,54,54,55,55,56,56,57,57,58,58,59,59,60,60,61,61,62,62],"right_children":[2,4,6,8,10,12,14,16,18,20,22,24,26,28,30,32,34,36,38,40,42,44,46,48,50,52,54,56,58,60,62,64,66,68,70,72,74,76,78,80,82,84,86,88,90,92,94,96,98,100,102,104,106,108,110,112,114,116,118,120,122,124,126,-1,-1,-1,-1,-1,-1,-1,-1,-1,-1,-1,-1,-1,-1,-1,-1,-1,-1,-1,-1,-1,-1,-1,-1,-1,-1,-1,-1,-1,-1,-1,-1,-1,-1,-1,-1,-1,-1,-1,-1,-1,-1,-1,-1,-1,-1,-1,-1,-1,-1,-1,-1,-1,-1,-1,-1,-1,-1,-1,-1,-1,-1,-1,-1],"split_conditions":[4.4211E0,2.448485E0,6.3525E0,3.1513E0,2.8378E0,2.516854E0,2.2E1,4.301862E0,4.9276137E0,3.7188406E0,3.9E1,2.2E1,3.9E1,8E0,8.1988E0,2.8E1,2.2652E0,1.9E1,1.0537634E0,9.919355E-1,4.1E1,4.7153845E0,9.89E2,5.64E2,1.0427808E0,5.3283E0,5.3235292E0,1.0636364E0,1.0377834E0,3.0088692E0,3.16E2,3.1909723E0,1.404E3,1.4157609E0,1.5668104E0,4E0,1.0242826E0,6.791075E0,2.8E1,5.2E1,3.54E2,3.3414633E0,4.4E1,4.1E1,1.0120482E0,2.6375E0,3.089172E0,1.9E1,1.8947369E0,9.453125E-1,5.88E2,1.0256411E0,1.6E1,8.5714287E-1,1.2151898E0,1.2E3,1.1E1,1.14537E1,8.273632E0,1.1097046E0,1.072973E0,1.0643086E0,3.1909723E0,2.1797556E-2,-2.078547E-2,4.7248206E-3,4.77089E-2,9.0122126E-2,-2.7696548E-2,-6.3961744E-2,-9.199221E-3,1.745504E-1,-1.6516019E-3,9.970857E-3,5.059239E-2,-1.6030157E-2,1.2937227E-1,-5.4549607E-3,3.6947303E-2,-3.190285E-2,5.4763164E-3,6.1561514E-2,-6.1421613E-3,9.065888E-2,-5.0033785E-2,-3.0131383E-2,-1.7569534E-2,1.8795018E-1,-3.0669344E-3,-2.6908442E-2,-1.3725142E-2,7.726966E-3,-1.2864964E-2,2.5147274E-2,-1.0859673E-3,-3.6261228E-3,-7.2385356E-2,6.652428E-2,1.7402923E-2,-1.09514985E-2,3.601677E-2,2.5454724E-2,7.348443E-2,-6.515786E-3,6.8967193E-3,1.0012769E-3,1.8161144E-2,-7.143835E-2,7.0216134E-3,4.852826E-2,-5.5548847E-2,1.0766774E-2,2.7080743E-2,2.8587302E-2,6.1582126E-2,4.1512486E-2,8.011678E-2,8.169194E-2,5.7783425E-2,5.7027537E-2,8.927234E-2,2.1694278E-2,7.469777E-2,6.8764925E-2,9.884293E-4,-2.0302117E-2,7.6464355E-2],"split_indices":[0,5,0,0,0,5,1,2,2,2,1,1,1,0,0,1,0,1,3,3,4,2,4,4,3,0,2,3,3,5,4,2,4,5,5,1,3,2,1,1,4,5,1,4,3,5,5,1,5,3,4,3,1,3,3,4,1,0,2,3,3,3,2,0,0,0,0,0,0,0,0,0,0,0,0,0,0,0,0,0,0,0,0,0,0,0,0,0,0,0,0,0,0,0,0,0,0,0,0,0,0,0,0,0,0,0,0,0,0,0,0,0,0,0,0,0,0,0,0,0,0,0,0,0,0,0,0],"split_type":[0,0,0,0,0,0,0,0,0,0,0,0,0,0,0,0,0,0,0,0,0,0,0,0,0,0,0,0,0,0,0,0,0,0,0,0,0,0,0,0,0,0,0,0,0,0,0,0,0,0,0,0,0,0,0,0,0,0,0,0,0,0,0,0,0,0,0,0,0,0,0,0,0,0,0,0,0,0,0,0,0,0,0,0,0,0,0,0,0,0,0,0,0,0,0,0,0,0,0,0,0,0,0,0,0,0,0,0,0,0,0,0,0,0,0,0,0,0,0,0,0,0,0,0,0,0,0],"sum_hessian":[1.6512E4,1.145E4,5.062E3,3.344E3,8.106E3,3.606E3,1.456E3,1.92E3,1.424E3,3.796E3,4.31E3,8.95E2,2.711E3,6.11E2,8.45E2,7.95E2,1.125E3,7.7E2,6.54E2,7.93E2,3.003E3,3.503E3,8.07E2,2.87E2,6.08E2,2.467E3,2.44E2,4.06E2,2.05E2,5.29E2,3.16E2,3.43E2,4.52E2,4.29E2,6.96E2,1.95E2,5.75E2,2.9E2,3.64E2,1.88E2,6.05E2,9E0,2.994E3,8.28E2,2.675E3,3.8E2,4.27E2,4.7E1,2.4E2,3.38E2,2.7E2,1.45E3,1.017E3,6.1E1,1.83E2,2.88E2,1.18E2,1.16E2,8.9E1,4.32E2,9.7E1,2.8E1,2.88E2,7E1,2.73E2,3.52E2,1E2,3E0,4.26E2,2.9E1,6.67E2,3E0,1.92E2,1.51E2,4.24E2,2.88E2,2E0,1.93E2,1.71E2,1.69E2,1.9E1,1.7E1,5.88E2,7E0,2E0,2.568E3,4.26E2,2E0,8.26E2,7.1E2,1.965E3,1.11E2,2.69E2,2.12E2,2.15E2,3.9E1,8E0,3.2E1,2.08E2,3.9E1,2.99E2,5.4E1,2.16E2,7.13E2,7.37E2,2.42E2,7.75E2,4E0,5.7E1,1.8E2,3E0,